/* ----------------------------------------------------------------------    
* Copyright (C) 2010-2014 ARM Limited. All rights reserved.    
*    
* $Date:        31. July 2014 
* $Revision:  V1.4.4  
*    
* Project:      CMSIS DSP Library    
* Title:      arm_dct4_init_f32.c    
*    
* Description:  Initialization function of DCT-4 & IDCT4 F32    
*    
* Target Processor: Cortex-M4/Cortex-M3/Cortex-M0
*  
* Redistribution and use in source and binary forms, with or without 
* modification, are permitted provided that the following conditions
* are met:
*   - Redistributions of source code must retain the above copyright
*     notice, this list of conditions and the following disclaimer.
*   - Redistributions in binary form must reproduce the above copyright
*     notice, this list of conditions and the following disclaimer in
*     the documentation and/or other materials provided with the 
*     distribution.
*   - Neither the name of ARM LIMITED nor the names of its contributors
*     may be used to endorse or promote products derived from this
*     software without specific prior written permission.
*
* THIS SOFTWARE IS PROVIDED BY THE COPYRIGHT HOLDERS AND CONTRIBUTORS
* "AS IS" AND ANY EXPRESS OR IMPLIED WARRANTIES, INCLUDING, BUT NOT
* LIMITED TO, THE IMPLIED WARRANTIES OF MERCHANTABILITY AND FITNESS
* FOR A PARTICULAR PURPOSE ARE DISCLAIMED. IN NO EVENT SHALL THE 
* COPYRIGHT OWNER OR CONTRIBUTORS BE LIABLE FOR ANY DIRECT, INDIRECT,
* INCIDENTAL, SPECIAL, EXEMPLARY, OR CONSEQUENTIAL DAMAGES (INCLUDING,
* BUT NOT LIMITED TO, PROCUREMENT OF SUBSTITUTE GOODS OR SERVICES;
* LOSS OF USE, DATA, OR PROFITS; OR BUSINESS INTERRUPTION) HOWEVER
* CAUSED AND ON ANY THEORY OF LIABILITY, WHETHER IN CONTRACT, STRICT
* LIABILITY, OR TORT (INCLUDING NEGLIGENCE OR OTHERWISE) ARISING IN
* ANY WAY OUT OF THE USE OF THIS SOFTWARE, EVEN IF ADVISED OF THE
* POSSIBILITY OF SUCH DAMAGE.   
* -------------------------------------------------------------------- */


#include "ale_dct2_f32.h"

/**    
 * @ingroup groupTransforms    
 */

/**    
 * @addtogroup DCT4_IDCT4    
 * @{    
 */

/*    
* @brief  Weights Table    
*/

/**    
* \par    
* Weights tables are generated using the formula : <pre>weights[n] = e^(-j*n*pi/(2*N))</pre>    
* \par    
* C command to generate the table    
* <pre>    
* for(i = 0; i< N; i++)    
* {    
*    weights[2*i]= cos(i*c);    
*    weights[(2*i)+1]= -sin(i * c);    
* } </pre>    
* \par    
* Where <code>N</code> is the Number of weights to be calculated and <code>c</code> is <code>pi/(2*N)</code>    
* \par    
* In the tables below the real and imaginary values are placed alternatively, hence the    
* array length is <code>2*N</code>.    
*/
static const float32_t Weights_16[32] = {
   1.000000000000000f,
                 0.0f,
   0.995184726672197f,
  -0.098017140329561f,
   0.980785280403230f,
  -0.195090322016128f,
   0.956940335732209f,
  -0.290284677254462f,
   0.923879532511287f,
  -0.382683432365090f,
   0.881921264348355f,
  -0.471396736825998f,
   0.831469612302545f,
  -0.555570233019602f,
   0.773010453362737f,
  -0.634393284163645f,
   0.707106781186548f,
  -0.707106781186547f,
   0.634393284163645f,
  -0.773010453362737f,
   0.555570233019602f,
  -0.831469612302545f,
   0.471396736825998f,
  -0.881921264348355f,
   0.382683432365090f,
  -0.923879532511287f,
   0.290284677254462f,
  -0.956940335732209f,
   0.195090322016128f,
  -0.980785280403230f,
   0.098017140329561f,
  -0.995184726672197f,
};

static const float32_t Weights_32[64] = {
   1.000000000000000f,
                 0.0f,
   0.998795456205172f,
  -0.049067674327418f,
   0.995184726672197f,
  -0.098017140329561f,
   0.989176509964781f,
  -0.146730474455362f,
   0.980785280403230f,
  -0.195090322016128f,
   0.970031253194544f,
  -0.242980179903264f,
   0.956940335732209f,
  -0.290284677254462f,
   0.941544065183021f,
  -0.336889853392220f,
   0.923879532511287f,
  -0.382683432365090f,
   0.903989293123443f,
  -0.427555093430282f,
   0.881921264348355f,
  -0.471396736825998f,
   0.857728610000272f,
  -0.514102744193222f,
   0.831469612302545f,
  -0.555570233019602f,
   0.803207531480645f,
  -0.595699304492433f,
   0.773010453362737f,
  -0.634393284163645f,
   0.740951125354959f,
  -0.671558954847018f,
   0.707106781186548f,
  -0.707106781186547f,
   0.671558954847018f,
  -0.740951125354959f,
   0.634393284163645f,
  -0.773010453362737f,
   0.595699304492433f,
  -0.803207531480645f,
   0.555570233019602f,
  -0.831469612302545f,
   0.514102744193222f,
  -0.857728610000272f,
   0.471396736825998f,
  -0.881921264348355f,
   0.427555093430282f,
  -0.903989293123443f,
   0.382683432365090f,
  -0.923879532511287f,
   0.336889853392220f,
  -0.941544065183021f,
   0.290284677254462f,
  -0.956940335732209f,
   0.242980179903264f,
  -0.970031253194544f,
   0.195090322016128f,
  -0.980785280403230f,
   0.146730474455362f,
  -0.989176509964781f,
   0.098017140329561f,
  -0.995184726672197f,
   0.049067674327418f,
  -0.998795456205172f,
};

/**    
 * @brief  Initialization function for the floating-point DCT4/IDCT4.   
 * @param[in,out] *S         points to an instance of floating-point DCT4/IDCT4 structure.   
 * @param[in]     *S_RFFT    points to an instance of floating-point RFFT/RIFFT structure.   
 * @param[in]     *S_CFFT    points to an instance of floating-point CFFT/CIFFT structure.   
 * @param[in]     N					 length of the DCT4.   
 * @param[in]     Nby2       half of the length of the DCT4.   
 * @param[in]     normalize  normalizing factor.   
 * @return        arm_status function returns ARM_MATH_SUCCESS if initialization is successful or ARM_MATH_ARGUMENT_ERROR if <code>fftLenReal</code> is not a supported transform length.   
 * \par Normalizing factor:    
 * The normalizing factor is <code>sqrt(2/N)</code>, which depends on the size of transform <code>N</code>.    
 * Floating-point normalizing factors are mentioned in the table below for different DCT sizes:    
 * \image html dct4NormalizingF32Table.gif    
 */

arm_status dct2_init_f32(
  ale_dct2_instance_f32 * S,
  arm_rfft_fast_instance_f32 * S_RFFT,
//  arm_cfft_radix4_instance_f32 * S_CFFT,
  uint16_t N,
  uint16_t Nby2,
  float32_t normalize)
{
  /*  Initialize the default arm status */
  arm_status status = ARM_MATH_SUCCESS;

  /* Initializing the pointer array with the weight table base addresses of different lengths */
//  float32_t *twiddlePtr[7] =
//    { (float32_t *) Weights_16, (float32_t *) Weights_32, 	(float32_t *) Weights_64,
//			(float32_t *) Weights_128, (float32_t *) Weights_512,	(float32_t *) Weights_2048,
//			(float32_t *) Weights_8192
//		};
		
	float32_t *twiddlePtr[2] =
    { (float32_t *) Weights_16, (float32_t *) Weights_32,
		};

  /* Initialize the DCT2 length */
  S->N = N;

  /* Initialize the half of DCT2 length */
  S->Nby2 = Nby2;

  /* Initialize the DCT2 Normalizing factor */
  S->normalize = normalize;

  /* Initialize Real FFT Instance */
  S->pRfft = S_RFFT;

  /* Initialize Complex FFT Instance */
//  S->pCfft = S_CFFT;

  switch (N)
  {
    /* Initialize the table modifier values */
//  case 8192u:
//    S->pTwiddle = twiddlePtr[6];
//    break;
//  case 2048u:
//    S->pTwiddle = twiddlePtr[5];
//    break;
//  case 512u:
//    S->pTwiddle = twiddlePtr[4];
//    break;
//  case 128u:
//    S->pTwiddle = twiddlePtr[3];
//    break;
//	case 64u:
//    S->pTwiddle = twiddlePtr[2];
//    break;
	case 32u:
    S->pTwiddle = twiddlePtr[1];
    break;
	case 16u:
    S->pTwiddle = twiddlePtr[0];
    break;
  default:
    status = ARM_MATH_ARGUMENT_ERROR;
  }

  /* Initialize the RFFT/RIFFT */
  arm_rfft_fast_init_f32(S->pRfft,N);

  /* return the status of DCT2 Init function */
  return (status);
}

/**    
   * @} end of DCT4_IDCT4 group    
   */

//static const float32_t Weights_64[128] = {
//   1.000000000000000f,
//                 0.0f,
//   0.999698818696204f,
//  -0.024541228522912f,
//   0.998795456205172f,
//  -0.049067674327418f,
//   0.997290456678690f,
//  -0.073564563599667f,
//   0.995184726672197f,
//  -0.098017140329561f,
//   0.992479534598710f,
//  -0.122410675199216f,
//   0.989176509964781f,
//  -0.146730474455362f,
//   0.985277642388941f,
//  -0.170961888760301f,
//   0.980785280403230f,
//  -0.195090322016128f,
//   0.975702130038529f,
//  -0.219101240156870f,
//   0.970031253194544f,
//  -0.242980179903264f,
//   0.963776065795440f,
//  -0.266712757474898f,
//   0.956940335732209f,
//  -0.290284677254462f,
//   0.949528180593037f,
//  -0.313681740398892f,
//   0.941544065183021f,
//  -0.336889853392220f,
//   0.932992798834739f,
//  -0.359895036534988f,
//   0.923879532511287f,
//  -0.382683432365090f,
//   0.914209755703531f,
//  -0.405241314004990f,
//   0.903989293123443f,
//  -0.427555093430282f,
//   0.893224301195515f,
//  -0.449611329654607f,
//   0.881921264348355f,
//  -0.471396736825998f,
//   0.870086991108711f,
//  -0.492898192229784f,
//   0.857728610000272f,
//  -0.514102744193222f,
//   0.844853565249707f,
//  -0.534997619887097f,
//   0.831469612302545f,
//  -0.555570233019602f,
//   0.817584813151584f,
//  -0.575808191417845f,
//   0.803207531480645f,
//  -0.595699304492433f,
//   0.788346427626606f,
//  -0.615231590580627f,
//   0.773010453362737f,
//  -0.634393284163645f,
//   0.757208846506485f,
//  -0.653172842953777f,
//   0.740951125354959f,
//  -0.671558954847018f,
//   0.724247082951467f,
//  -0.689540544737067f,
//   0.707106781186548f,
//  -0.707106781186547f,
//   0.689540544737067f,
//  -0.724247082951467f,
//   0.671558954847018f,
//  -0.740951125354959f,
//   0.653172842953777f,
//  -0.757208846506485f,
//   0.634393284163645f,
//  -0.773010453362737f,
//   0.615231590580627f,
//  -0.788346427626606f,
//   0.595699304492433f,
//  -0.803207531480645f,
//   0.575808191417845f,
//  -0.817584813151584f,
//   0.555570233019602f,
//  -0.831469612302545f,
//   0.534997619887097f,
//  -0.844853565249707f,
//   0.514102744193222f,
//  -0.857728610000272f,
//   0.492898192229784f,
//  -0.870086991108711f,
//   0.471396736825998f,
//  -0.881921264348355f,
//   0.449611329654607f,
//  -0.893224301195515f,
//   0.427555093430282f,
//  -0.903989293123443f,
//   0.405241314004990f,
//  -0.914209755703531f,
//   0.382683432365090f,
//  -0.923879532511287f,
//   0.359895036534988f,
//  -0.932992798834739f,
//   0.336889853392220f,
//  -0.941544065183021f,
//   0.313681740398892f,
//  -0.949528180593037f,
//   0.290284677254462f,
//  -0.956940335732209f,
//   0.266712757474898f,
//  -0.963776065795440f,
//   0.242980179903264f,
//  -0.970031253194544f,
//   0.219101240156870f,
//  -0.975702130038529f,
//   0.195090322016128f,
//  -0.980785280403230f,
//   0.170961888760301f,
//  -0.985277642388941f,
//   0.146730474455362f,
//  -0.989176509964781f,
//   0.122410675199216f,
//  -0.992479534598710f,
//   0.098017140329561f,
//  -0.995184726672197f,
//   0.073564563599667f,
//  -0.997290456678690f,
//   0.049067674327418f,
//  -0.998795456205172f,
//   0.024541228522912f,
//  -0.999698818696204f,
//};

//static const float32_t Weights_128[256] = {
//  1.000000000000000000f, 0.000000000000000000f, 0.999924701839144500f,
//  -0.012271538285719925f,
//  0.999698818696204250f, -0.024541228522912288f, 0.999322384588349540f,
//  -0.036807222941358832f,
//  0.998795456205172410f, -0.049067674327418015f, 0.998118112900149180f,
//  -0.061320736302208578f,
//  0.997290456678690210f, -0.073564563599667426f, 0.996312612182778000f,
//  -0.085797312344439894f,
//  0.995184726672196930f, -0.098017140329560604f, 0.993906970002356060f,
//  -0.110222207293883060f,
//  0.992479534598709970f, -0.122410675199216200f, 0.990902635427780010f,
//  -0.134580708507126170f,
//  0.989176509964781010f, -0.146730474455361750f, 0.987301418157858430f,
//  -0.158858143333861450f,
//  0.985277642388941220f, -0.170961888760301220f, 0.983105487431216290f,
//  -0.183039887955140950f,
//  0.980785280403230430f, -0.195090322016128250f, 0.978317370719627650f,
//  -0.207111376192218560f,
//  0.975702130038528570f, -0.219101240156869800f, 0.972939952205560180f,
//  -0.231058108280671110f,
//  0.970031253194543970f, -0.242980179903263870f, 0.966976471044852070f,
//  -0.254865659604514570f,
//  0.963776065795439840f, -0.266712757474898370f, 0.960430519415565790f,
//  -0.278519689385053060f,
//  0.956940335732208820f, -0.290284677254462330f, 0.953306040354193860f,
//  -0.302005949319228080f,
//  0.949528180593036670f, -0.313681740398891520f, 0.945607325380521280f,
//  -0.325310292162262930f,
//  0.941544065183020810f, -0.336889853392220050f, 0.937339011912574960f,
//  -0.348418680249434560f,
//  0.932992798834738960f, -0.359895036534988110f, 0.928506080473215590f,
//  -0.371317193951837540f,
//  0.923879532511286740f, -0.382683432365089780f, 0.919113851690057770f,
//  -0.393992040061048100f,
//  0.914209755703530690f, -0.405241314004989860f, 0.909167983090522380f,
//  -0.416429560097637150f,
//  0.903989293123443340f, -0.427555093430282080f, 0.898674465693953820f,
//  -0.438616238538527660f,
//  0.893224301195515320f, -0.449611329654606540f, 0.887639620402853930f,
//  -0.460538710958240010f,
//  0.881921264348355050f, -0.471396736825997640f, 0.876070094195406600f,
//  -0.482183772079122720f,
//  0.870086991108711460f, -0.492898192229784040f, 0.863972856121586810f,
//  -0.503538383725717580f,
//  0.857728610000272120f, -0.514102744193221660f, 0.851355193105265200f,
//  -0.524589682678468950f,
//  0.844853565249707120f, -0.534997619887097150f, 0.838224705554838080f,
//  -0.545324988422046460f,
//  0.831469612302545240f, -0.555570233019602180f, 0.824589302785025290f,
//  -0.565731810783613120f,
//  0.817584813151583710f, -0.575808191417845340f, 0.810457198252594770f,
//  -0.585797857456438860f,
//  0.803207531480644940f, -0.595699304492433360f, 0.795836904608883570f,
//  -0.605511041404325550f,
//  0.788346427626606340f, -0.615231590580626820f, 0.780737228572094490f,
//  -0.624859488142386340f,
//  0.773010453362736990f, -0.634393284163645490f, 0.765167265622458960f,
//  -0.643831542889791390f,
//  0.757208846506484570f, -0.653172842953776760f, 0.749136394523459370f,
//  -0.662415777590171780f,
//  0.740951125354959110f, -0.671558954847018330f, 0.732654271672412820f,
//  -0.680600997795453020f,
//  0.724247082951467000f, -0.689540544737066830f, 0.715730825283818590f,
//  -0.698376249408972920f,
//  0.707106781186547570f, -0.707106781186547460f, 0.698376249408972920f,
//  -0.715730825283818590f,
//  0.689540544737066940f, -0.724247082951466890f, 0.680600997795453130f,
//  -0.732654271672412820f,
//  0.671558954847018330f, -0.740951125354959110f, 0.662415777590171780f,
//  -0.749136394523459260f,
//  0.653172842953776760f, -0.757208846506484460f, 0.643831542889791500f,
//  -0.765167265622458960f,
//  0.634393284163645490f, -0.773010453362736990f, 0.624859488142386450f,
//  -0.780737228572094380f,
//  0.615231590580626820f, -0.788346427626606230f, 0.605511041404325550f,
//  -0.795836904608883460f,
//  0.595699304492433470f, -0.803207531480644830f, 0.585797857456438860f,
//  -0.810457198252594770f,
//  0.575808191417845340f, -0.817584813151583710f, 0.565731810783613230f,
//  -0.824589302785025290f,
//  0.555570233019602290f, -0.831469612302545240f, 0.545324988422046460f,
//  -0.838224705554837970f,
//  0.534997619887097260f, -0.844853565249707010f, 0.524589682678468840f,
//  -0.851355193105265200f,
//  0.514102744193221660f, -0.857728610000272120f, 0.503538383725717580f,
//  -0.863972856121586700f,
//  0.492898192229784090f, -0.870086991108711350f, 0.482183772079122830f,
//  -0.876070094195406600f,
//  0.471396736825997810f, -0.881921264348354940f, 0.460538710958240010f,
//  -0.887639620402853930f,
//  0.449611329654606600f, -0.893224301195515320f, 0.438616238538527710f,
//  -0.898674465693953820f,
//  0.427555093430282200f, -0.903989293123443340f, 0.416429560097637320f,
//  -0.909167983090522270f,
//  0.405241314004989860f, -0.914209755703530690f, 0.393992040061048100f,
//  -0.919113851690057770f,
//  0.382683432365089840f, -0.923879532511286740f, 0.371317193951837600f,
//  -0.928506080473215480f,
//  0.359895036534988280f, -0.932992798834738850f, 0.348418680249434510f,
//  -0.937339011912574960f,
//  0.336889853392220050f, -0.941544065183020810f, 0.325310292162262980f,
//  -0.945607325380521280f,
//  0.313681740398891570f, -0.949528180593036670f, 0.302005949319228200f,
//  -0.953306040354193750f,
//  0.290284677254462330f, -0.956940335732208940f, 0.278519689385053060f,
//  -0.960430519415565790f,
//  0.266712757474898420f, -0.963776065795439840f, 0.254865659604514630f,
//  -0.966976471044852070f,
//  0.242980179903263980f, -0.970031253194543970f, 0.231058108280671280f,
//  -0.972939952205560070f,
//  0.219101240156869770f, -0.975702130038528570f, 0.207111376192218560f,
//  -0.978317370719627650f,
//  0.195090322016128330f, -0.980785280403230430f, 0.183039887955141060f,
//  -0.983105487431216290f,
//  0.170961888760301360f, -0.985277642388941220f, 0.158858143333861390f,
//  -0.987301418157858430f,
//  0.146730474455361750f, -0.989176509964781010f, 0.134580708507126220f,
//  -0.990902635427780010f,
//  0.122410675199216280f, -0.992479534598709970f, 0.110222207293883180f,
//  -0.993906970002356060f,
//  0.098017140329560770f, -0.995184726672196820f, 0.085797312344439880f,
//  -0.996312612182778000f,
//  0.073564563599667454f, -0.997290456678690210f, 0.061320736302208648f,
//  -0.998118112900149180f,
//  0.049067674327418126f, -0.998795456205172410f, 0.036807222941358991f,
//  -0.999322384588349540f,
//  0.024541228522912264f, -0.999698818696204250f, 0.012271538285719944f,
//  -0.999924701839144500f
//};

//static const float32_t Weights_512[1024] = {
//  1.000000000000000000f, 0.000000000000000000f, 0.999995293809576190f,
//  -0.003067956762965976f,
//  0.999981175282601110f, -0.006135884649154475f, 0.999957644551963900f,
//  -0.009203754782059819f,
//  0.999924701839144500f, -0.012271538285719925f, 0.999882347454212560f,
//  -0.015339206284988100f,
//  0.999830581795823400f, -0.018406729905804820f, 0.999769405351215280f,
//  -0.021474080275469508f,
//  0.999698818696204250f, -0.024541228522912288f, 0.999618822495178640f,
//  -0.027608145778965740f,
//  0.999529417501093140f, -0.030674803176636626f, 0.999430604555461730f,
//  -0.033741171851377580f,
//  0.999322384588349540f, -0.036807222941358832f, 0.999204758618363890f,
//  -0.039872927587739811f,
//  0.999077727752645360f, -0.042938256934940820f, 0.998941293186856870f,
//  -0.046003182130914623f,
//  0.998795456205172410f, -0.049067674327418015f, 0.998640218180265270f,
//  -0.052131704680283324f,
//  0.998475580573294770f, -0.055195244349689934f, 0.998301544933892890f,
//  -0.058258264500435752f,
//  0.998118112900149180f, -0.061320736302208578f, 0.997925286198596000f,
//  -0.064382630929857465f,
//  0.997723066644191640f, -0.067443919563664051f, 0.997511456140303450f,
//  -0.070504573389613856f,
//  0.997290456678690210f, -0.073564563599667426f, 0.997060070339482960f,
//  -0.076623861392031492f,
//  0.996820299291165670f, -0.079682437971430126f, 0.996571145790554840f,
//  -0.082740264549375692f,
//  0.996312612182778000f, -0.085797312344439894f, 0.996044700901251970f,
//  -0.088853552582524600f,
//  0.995767414467659820f, -0.091908956497132724f, 0.995480755491926940f,
//  -0.094963495329638992f,
//  0.995184726672196930f, -0.098017140329560604f, 0.994879330794805620f,
//  -0.101069862754827820f,
//  0.994564570734255420f, -0.104121633872054590f, 0.994240449453187900f,
//  -0.107172424956808840f,
//  0.993906970002356060f, -0.110222207293883060f, 0.993564135520595300f,
//  -0.113270952177564350f,
//  0.993211949234794500f, -0.116318630911904750f, 0.992850414459865100f,
//  -0.119365214810991350f,
//  0.992479534598709970f, -0.122410675199216200f, 0.992099313142191800f,
//  -0.125454983411546230f,
//  0.991709753669099530f, -0.128498110793793170f, 0.991310859846115440f,
//  -0.131540028702883120f,
//  0.990902635427780010f, -0.134580708507126170f, 0.990485084256457090f,
//  -0.137620121586486040f,
//  0.990058210262297120f, -0.140658239332849210f, 0.989622017463200890f,
//  -0.143695033150294470f,
//  0.989176509964781010f, -0.146730474455361750f, 0.988721691960323780f,
//  -0.149764534677321510f,
//  0.988257567730749460f, -0.152797185258443440f, 0.987784141644572180f,
//  -0.155828397654265230f,
//  0.987301418157858430f, -0.158858143333861450f, 0.986809401814185530f,
//  -0.161886393780111830f,
//  0.986308097244598670f, -0.164913120489969890f, 0.985797509167567480f,
//  -0.167938294974731170f,
//  0.985277642388941220f, -0.170961888760301220f, 0.984748501801904210f,
//  -0.173983873387463820f,
//  0.984210092386929030f, -0.177004220412148750f, 0.983662419211730250f,
//  -0.180022901405699510f,
//  0.983105487431216290f, -0.183039887955140950f, 0.982539302287441240f,
//  -0.186055151663446630f,
//  0.981963869109555240f, -0.189068664149806190f, 0.981379193313754560f,
//  -0.192080397049892440f,
//  0.980785280403230430f, -0.195090322016128250f, 0.980182135968117430f,
//  -0.198098410717953560f,
//  0.979569765685440520f, -0.201104634842091900f, 0.978948175319062200f,
//  -0.204108966092816870f,
//  0.978317370719627650f, -0.207111376192218560f, 0.977677357824509930f,
//  -0.210111836880469610f,
//  0.977028142657754390f, -0.213110319916091360f, 0.976369731330021140f,
//  -0.216106797076219520f,
//  0.975702130038528570f, -0.219101240156869800f, 0.975025345066994120f,
//  -0.222093620973203510f,
//  0.974339382785575860f, -0.225083911359792830f, 0.973644249650811980f,
//  -0.228072083170885730f,
//  0.972939952205560180f, -0.231058108280671110f, 0.972226497078936270f,
//  -0.234041958583543430f,
//  0.971503890986251780f, -0.237023605994367200f, 0.970772140728950350f,
//  -0.240003022448741500f,
//  0.970031253194543970f, -0.242980179903263870f, 0.969281235356548530f,
//  -0.245955050335794590f,
//  0.968522094274417380f, -0.248927605745720150f, 0.967753837093475510f,
//  -0.251897818154216970f,
//  0.966976471044852070f, -0.254865659604514570f, 0.966190003445412500f,
//  -0.257831102162158990f,
//  0.965394441697689400f, -0.260794117915275510f, 0.964589793289812760f,
//  -0.263754678974831350f,
//  0.963776065795439840f, -0.266712757474898370f, 0.962953266873683880f,
//  -0.269668325572915090f,
//  0.962121404269041580f, -0.272621355449948980f, 0.961280485811320640f,
//  -0.275571819310958140f,
//  0.960430519415565790f, -0.278519689385053060f, 0.959571513081984520f,
//  -0.281464937925757940f,
//  0.958703474895871600f, -0.284407537211271880f, 0.957826413027532910f,
//  -0.287347459544729510f,
//  0.956940335732208820f, -0.290284677254462330f, 0.956045251349996410f,
//  -0.293219162694258630f,
//  0.955141168305770780f, -0.296150888243623790f, 0.954228095109105670f,
//  -0.299079826308040480f,
//  0.953306040354193860f, -0.302005949319228080f, 0.952375012719765880f,
//  -0.304929229735402370f,
//  0.951435020969008340f, -0.307849640041534870f, 0.950486073949481700f,
//  -0.310767152749611470f,
//  0.949528180593036670f, -0.313681740398891520f, 0.948561349915730270f,
//  -0.316593375556165850f,
//  0.947585591017741090f, -0.319502030816015690f, 0.946600913083283530f,
//  -0.322407678801069850f,
//  0.945607325380521280f, -0.325310292162262930f, 0.944604837261480260f,
//  -0.328209843579092500f,
//  0.943593458161960390f, -0.331106305759876430f, 0.942573197601446870f,
//  -0.333999651442009380f,
//  0.941544065183020810f, -0.336889853392220050f, 0.940506070593268300f,
//  -0.339776884406826850f,
//  0.939459223602189920f, -0.342660717311994380f, 0.938403534063108060f,
//  -0.345541324963989090f,
//  0.937339011912574960f, -0.348418680249434560f, 0.936265667170278260f,
//  -0.351292756085567090f,
//  0.935183509938947610f, -0.354163525420490340f, 0.934092550404258980f,
//  -0.357030961233429980f,
//  0.932992798834738960f, -0.359895036534988110f, 0.931884265581668150f,
//  -0.362755724367397230f,
//  0.930766961078983710f, -0.365612997804773850f, 0.929640895843181330f,
//  -0.368466829953372320f,
//  0.928506080473215590f, -0.371317193951837540f, 0.927362525650401110f,
//  -0.374164062971457930f,
//  0.926210242138311380f, -0.377007410216418260f, 0.925049240782677580f,
//  -0.379847208924051160f,
//  0.923879532511286740f, -0.382683432365089780f, 0.922701128333878630f,
//  -0.385516053843918850f,
//  0.921514039342042010f, -0.388345046698826250f, 0.920318276709110590f,
//  -0.391170384302253870f,
//  0.919113851690057770f, -0.393992040061048100f, 0.917900775621390500f,
//  -0.396809987416710310f,
//  0.916679059921042700f, -0.399624199845646790f, 0.915448716088267830f,
//  -0.402434650859418430f,
//  0.914209755703530690f, -0.405241314004989860f, 0.912962190428398210f,
//  -0.408044162864978690f,
//  0.911706032005429880f, -0.410843171057903910f, 0.910441292258067250f,
//  -0.413638312238434500f,
//  0.909167983090522380f, -0.416429560097637150f, 0.907886116487666260f,
//  -0.419216888363223910f,
//  0.906595704514915330f, -0.422000270799799680f, 0.905296759318118820f,
//  -0.424779681209108810f,
//  0.903989293123443340f, -0.427555093430282080f, 0.902673318237258830f,
//  -0.430326481340082610f,
//  0.901348847046022030f, -0.433093818853151960f, 0.900015892016160280f,
//  -0.435857079922255470f,
//  0.898674465693953820f, -0.438616238538527660f, 0.897324580705418320f,
//  -0.441371268731716670f,
//  0.895966249756185220f, -0.444122144570429200f, 0.894599485631382700f,
//  -0.446868840162374160f,
//  0.893224301195515320f, -0.449611329654606540f, 0.891840709392342720f,
//  -0.452349587233770890f,
//  0.890448723244757880f, -0.455083587126343840f, 0.889048355854664570f,
//  -0.457813303598877170f,
//  0.887639620402853930f, -0.460538710958240010f, 0.886222530148880640f,
//  -0.463259783551860150f,
//  0.884797098430937790f, -0.465976495767966180f, 0.883363338665731580f,
//  -0.468688822035827900f,
//  0.881921264348355050f, -0.471396736825997640f, 0.880470889052160750f,
//  -0.474100214650549970f,
//  0.879012226428633530f, -0.476799230063322090f, 0.877545290207261350f,
//  -0.479493757660153010f,
//  0.876070094195406600f, -0.482183772079122720f, 0.874586652278176110f,
//  -0.484869248000791060f,
//  0.873094978418290090f, -0.487550160148436000f, 0.871595086655950980f,
//  -0.490226483288291160f,
//  0.870086991108711460f, -0.492898192229784040f, 0.868570705971340900f,
//  -0.495565261825772540f,
//  0.867046245515692650f, -0.498227666972781870f, 0.865513624090569090f,
//  -0.500885382611240710f,
//  0.863972856121586810f, -0.503538383725717580f, 0.862423956111040610f,
//  -0.506186645345155230f,
//  0.860866938637767310f, -0.508830142543106990f, 0.859301818357008470f,
//  -0.511468850437970300f,
//  0.857728610000272120f, -0.514102744193221660f, 0.856147328375194470f,
//  -0.516731799017649870f,
//  0.854557988365400530f, -0.519355990165589640f, 0.852960604930363630f,
//  -0.521975292937154390f,
//  0.851355193105265200f, -0.524589682678468950f, 0.849741768000852550f,
//  -0.527199134781901280f,
//  0.848120344803297230f, -0.529803624686294610f, 0.846490938774052130f,
//  -0.532403127877197900f,
//  0.844853565249707120f, -0.534997619887097150f, 0.843208239641845440f,
//  -0.537587076295645390f,
//  0.841554977436898440f, -0.540171472729892850f, 0.839893794195999520f,
//  -0.542750784864515890f,
//  0.838224705554838080f, -0.545324988422046460f, 0.836547727223512010f,
//  -0.547894059173100190f,
//  0.834862874986380010f, -0.550457972936604810f, 0.833170164701913190f,
//  -0.553016705580027470f,
//  0.831469612302545240f, -0.555570233019602180f, 0.829761233794523050f,
//  -0.558118531220556100f,
//  0.828045045257755800f, -0.560661576197336030f, 0.826321062845663530f,
//  -0.563199344013834090f,
//  0.824589302785025290f, -0.565731810783613120f, 0.822849781375826430f,
//  -0.568258952670131490f,
//  0.821102514991104650f, -0.570780745886967260f, 0.819347520076796900f,
//  -0.573297166698042200f,
//  0.817584813151583710f, -0.575808191417845340f, 0.815814410806733780f,
//  -0.578313796411655590f,
//  0.814036329705948410f, -0.580813958095764530f, 0.812250586585203880f,
//  -0.583308652937698290f,
//  0.810457198252594770f, -0.585797857456438860f, 0.808656181588174980f,
//  -0.588281548222645220f,
//  0.806847553543799330f, -0.590759701858874160f, 0.805031331142963660f,
//  -0.593232295039799800f,
//  0.803207531480644940f, -0.595699304492433360f, 0.801376171723140240f,
//  -0.598160706996342270f,
//  0.799537269107905010f, -0.600616479383868970f, 0.797690840943391160f,
//  -0.603066598540348160f,
//  0.795836904608883570f, -0.605511041404325550f, 0.793975477554337170f,
//  -0.607949784967773630f,
//  0.792106577300212390f, -0.610382806276309480f, 0.790230221437310030f,
//  -0.612810082429409710f,
//  0.788346427626606340f, -0.615231590580626820f, 0.786455213599085770f,
//  -0.617647307937803870f,
//  0.784556597155575240f, -0.620057211763289100f, 0.782650596166575730f,
//  -0.622461279374149970f,
//  0.780737228572094490f, -0.624859488142386340f, 0.778816512381475980f,
//  -0.627251815495144080f,
//  0.776888465673232440f, -0.629638238914926980f, 0.774953106594873930f,
//  -0.632018735939809060f,
//  0.773010453362736990f, -0.634393284163645490f, 0.771060524261813820f,
//  -0.636761861236284200f,
//  0.769103337645579700f, -0.639124444863775730f, 0.767138911935820400f,
//  -0.641481012808583160f,
//  0.765167265622458960f, -0.643831542889791390f, 0.763188417263381270f,
//  -0.646176012983316280f,
//  0.761202385484261780f, -0.648514401022112440f, 0.759209188978388070f,
//  -0.650846684996380880f,
//  0.757208846506484570f, -0.653172842953776760f, 0.755201376896536550f,
//  -0.655492852999615350f,
//  0.753186799043612520f, -0.657806693297078640f, 0.751165131909686480f,
//  -0.660114342067420480f,
//  0.749136394523459370f, -0.662415777590171780f, 0.747100605980180130f,
//  -0.664710978203344790f,
//  0.745057785441466060f, -0.666999922303637470f, 0.743007952135121720f,
//  -0.669282588346636010f,
//  0.740951125354959110f, -0.671558954847018330f, 0.738887324460615110f,
//  -0.673829000378756040f,
//  0.736816568877369900f, -0.676092703575315920f, 0.734738878095963500f,
//  -0.678350043129861470f,
//  0.732654271672412820f, -0.680600997795453020f, 0.730562769227827590f,
//  -0.682845546385248080f,
//  0.728464390448225200f, -0.685083667772700360f, 0.726359155084346010f,
//  -0.687315340891759050f,
//  0.724247082951467000f, -0.689540544737066830f, 0.722128193929215350f,
//  -0.691759258364157750f,
//  0.720002507961381650f, -0.693971460889654000f, 0.717870045055731710f,
//  -0.696177131491462990f,
//  0.715730825283818590f, -0.698376249408972920f, 0.713584868780793640f,
//  -0.700568793943248340f,
//  0.711432195745216430f, -0.702754744457225300f, 0.709272826438865690f,
//  -0.704934080375904880f,
//  0.707106781186547570f, -0.707106781186547460f, 0.704934080375904990f,
//  -0.709272826438865580f,
//  0.702754744457225300f, -0.711432195745216430f, 0.700568793943248450f,
//  -0.713584868780793520f,
//  0.698376249408972920f, -0.715730825283818590f, 0.696177131491462990f,
//  -0.717870045055731710f,
//  0.693971460889654000f, -0.720002507961381650f, 0.691759258364157750f,
//  -0.722128193929215350f,
//  0.689540544737066940f, -0.724247082951466890f, 0.687315340891759160f,
//  -0.726359155084346010f,
//  0.685083667772700360f, -0.728464390448225200f, 0.682845546385248080f,
//  -0.730562769227827590f,
//  0.680600997795453130f, -0.732654271672412820f, 0.678350043129861580f,
//  -0.734738878095963390f,
//  0.676092703575316030f, -0.736816568877369790f, 0.673829000378756150f,
//  -0.738887324460615110f,
//  0.671558954847018330f, -0.740951125354959110f, 0.669282588346636010f,
//  -0.743007952135121720f,
//  0.666999922303637470f, -0.745057785441465950f, 0.664710978203344900f,
//  -0.747100605980180130f,
//  0.662415777590171780f, -0.749136394523459260f, 0.660114342067420480f,
//  -0.751165131909686370f,
//  0.657806693297078640f, -0.753186799043612410f, 0.655492852999615460f,
//  -0.755201376896536550f,
//  0.653172842953776760f, -0.757208846506484460f, 0.650846684996380990f,
//  -0.759209188978387960f,
//  0.648514401022112550f, -0.761202385484261780f, 0.646176012983316390f,
//  -0.763188417263381270f,
//  0.643831542889791500f, -0.765167265622458960f, 0.641481012808583160f,
//  -0.767138911935820400f,
//  0.639124444863775730f, -0.769103337645579590f, 0.636761861236284200f,
//  -0.771060524261813710f,
//  0.634393284163645490f, -0.773010453362736990f, 0.632018735939809060f,
//  -0.774953106594873820f,
//  0.629638238914927100f, -0.776888465673232440f, 0.627251815495144190f,
//  -0.778816512381475870f,
//  0.624859488142386450f, -0.780737228572094380f, 0.622461279374150080f,
//  -0.782650596166575730f,
//  0.620057211763289210f, -0.784556597155575240f, 0.617647307937803980f,
//  -0.786455213599085770f,
//  0.615231590580626820f, -0.788346427626606230f, 0.612810082429409710f,
//  -0.790230221437310030f,
//  0.610382806276309480f, -0.792106577300212390f, 0.607949784967773740f,
//  -0.793975477554337170f,
//  0.605511041404325550f, -0.795836904608883460f, 0.603066598540348280f,
//  -0.797690840943391040f,
//  0.600616479383868970f, -0.799537269107905010f, 0.598160706996342380f,
//  -0.801376171723140130f,
//  0.595699304492433470f, -0.803207531480644830f, 0.593232295039799800f,
//  -0.805031331142963660f,
//  0.590759701858874280f, -0.806847553543799220f, 0.588281548222645330f,
//  -0.808656181588174980f,
//  0.585797857456438860f, -0.810457198252594770f, 0.583308652937698290f,
//  -0.812250586585203880f,
//  0.580813958095764530f, -0.814036329705948300f, 0.578313796411655590f,
//  -0.815814410806733780f,
//  0.575808191417845340f, -0.817584813151583710f, 0.573297166698042320f,
//  -0.819347520076796900f,
//  0.570780745886967370f, -0.821102514991104650f, 0.568258952670131490f,
//  -0.822849781375826320f,
//  0.565731810783613230f, -0.824589302785025290f, 0.563199344013834090f,
//  -0.826321062845663420f,
//  0.560661576197336030f, -0.828045045257755800f, 0.558118531220556100f,
//  -0.829761233794523050f,
//  0.555570233019602290f, -0.831469612302545240f, 0.553016705580027580f,
//  -0.833170164701913190f,
//  0.550457972936604810f, -0.834862874986380010f, 0.547894059173100190f,
//  -0.836547727223511890f,
//  0.545324988422046460f, -0.838224705554837970f, 0.542750784864516000f,
//  -0.839893794195999410f,
//  0.540171472729892970f, -0.841554977436898330f, 0.537587076295645510f,
//  -0.843208239641845440f,
//  0.534997619887097260f, -0.844853565249707010f, 0.532403127877198010f,
//  -0.846490938774052020f,
//  0.529803624686294830f, -0.848120344803297120f, 0.527199134781901390f,
//  -0.849741768000852440f,
//  0.524589682678468840f, -0.851355193105265200f, 0.521975292937154390f,
//  -0.852960604930363630f,
//  0.519355990165589530f, -0.854557988365400530f, 0.516731799017649980f,
//  -0.856147328375194470f,
//  0.514102744193221660f, -0.857728610000272120f, 0.511468850437970520f,
//  -0.859301818357008360f,
//  0.508830142543106990f, -0.860866938637767310f, 0.506186645345155450f,
//  -0.862423956111040500f,
//  0.503538383725717580f, -0.863972856121586700f, 0.500885382611240940f,
//  -0.865513624090568980f,
//  0.498227666972781870f, -0.867046245515692650f, 0.495565261825772490f,
//  -0.868570705971340900f,
//  0.492898192229784090f, -0.870086991108711350f, 0.490226483288291100f,
//  -0.871595086655951090f,
//  0.487550160148436050f, -0.873094978418290090f, 0.484869248000791120f,
//  -0.874586652278176110f,
//  0.482183772079122830f, -0.876070094195406600f, 0.479493757660153010f,
//  -0.877545290207261240f,
//  0.476799230063322250f, -0.879012226428633410f, 0.474100214650550020f,
//  -0.880470889052160750f,
//  0.471396736825997810f, -0.881921264348354940f, 0.468688822035827960f,
//  -0.883363338665731580f,
//  0.465976495767966130f, -0.884797098430937790f, 0.463259783551860260f,
//  -0.886222530148880640f,
//  0.460538710958240010f, -0.887639620402853930f, 0.457813303598877290f,
//  -0.889048355854664570f,
//  0.455083587126343840f, -0.890448723244757880f, 0.452349587233771000f,
//  -0.891840709392342720f,
//  0.449611329654606600f, -0.893224301195515320f, 0.446868840162374330f,
//  -0.894599485631382580f,
//  0.444122144570429260f, -0.895966249756185110f, 0.441371268731716620f,
//  -0.897324580705418320f,
//  0.438616238538527710f, -0.898674465693953820f, 0.435857079922255470f,
//  -0.900015892016160280f,
//  0.433093818853152010f, -0.901348847046022030f, 0.430326481340082610f,
//  -0.902673318237258830f,
//  0.427555093430282200f, -0.903989293123443340f, 0.424779681209108810f,
//  -0.905296759318118820f,
//  0.422000270799799790f, -0.906595704514915330f, 0.419216888363223960f,
//  -0.907886116487666150f,
//  0.416429560097637320f, -0.909167983090522270f, 0.413638312238434560f,
//  -0.910441292258067140f,
//  0.410843171057903910f, -0.911706032005429880f, 0.408044162864978740f,
//  -0.912962190428398100f,
//  0.405241314004989860f, -0.914209755703530690f, 0.402434650859418540f,
//  -0.915448716088267830f,
//  0.399624199845646790f, -0.916679059921042700f, 0.396809987416710420f,
//  -0.917900775621390390f,
//  0.393992040061048100f, -0.919113851690057770f, 0.391170384302253980f,
//  -0.920318276709110480f,
//  0.388345046698826300f, -0.921514039342041900f, 0.385516053843919020f,
//  -0.922701128333878520f,
//  0.382683432365089840f, -0.923879532511286740f, 0.379847208924051110f,
//  -0.925049240782677580f,
//  0.377007410216418310f, -0.926210242138311270f, 0.374164062971457990f,
//  -0.927362525650401110f,
//  0.371317193951837600f, -0.928506080473215480f, 0.368466829953372320f,
//  -0.929640895843181330f,
//  0.365612997804773960f, -0.930766961078983710f, 0.362755724367397230f,
//  -0.931884265581668150f,
//  0.359895036534988280f, -0.932992798834738850f, 0.357030961233430030f,
//  -0.934092550404258870f,
//  0.354163525420490510f, -0.935183509938947500f, 0.351292756085567150f,
//  -0.936265667170278260f,
//  0.348418680249434510f, -0.937339011912574960f, 0.345541324963989150f,
//  -0.938403534063108060f,
//  0.342660717311994380f, -0.939459223602189920f, 0.339776884406826960f,
//  -0.940506070593268300f,
//  0.336889853392220050f, -0.941544065183020810f, 0.333999651442009490f,
//  -0.942573197601446870f,
//  0.331106305759876430f, -0.943593458161960390f, 0.328209843579092660f,
//  -0.944604837261480260f,
//  0.325310292162262980f, -0.945607325380521280f, 0.322407678801070020f,
//  -0.946600913083283530f,
//  0.319502030816015750f, -0.947585591017741090f, 0.316593375556165850f,
//  -0.948561349915730270f,
//  0.313681740398891570f, -0.949528180593036670f, 0.310767152749611470f,
//  -0.950486073949481700f,
//  0.307849640041534980f, -0.951435020969008340f, 0.304929229735402430f,
//  -0.952375012719765880f,
//  0.302005949319228200f, -0.953306040354193750f, 0.299079826308040480f,
//  -0.954228095109105670f,
//  0.296150888243623960f, -0.955141168305770670f, 0.293219162694258680f,
//  -0.956045251349996410f,
//  0.290284677254462330f, -0.956940335732208940f, 0.287347459544729570f,
//  -0.957826413027532910f,
//  0.284407537211271820f, -0.958703474895871600f, 0.281464937925758050f,
//  -0.959571513081984520f,
//  0.278519689385053060f, -0.960430519415565790f, 0.275571819310958250f,
//  -0.961280485811320640f,
//  0.272621355449948980f, -0.962121404269041580f, 0.269668325572915200f,
//  -0.962953266873683880f,
//  0.266712757474898420f, -0.963776065795439840f, 0.263754678974831510f,
//  -0.964589793289812650f,
//  0.260794117915275570f, -0.965394441697689400f, 0.257831102162158930f,
//  -0.966190003445412620f,
//  0.254865659604514630f, -0.966976471044852070f, 0.251897818154216910f,
//  -0.967753837093475510f,
//  0.248927605745720260f, -0.968522094274417270f, 0.245955050335794590f,
//  -0.969281235356548530f,
//  0.242980179903263980f, -0.970031253194543970f, 0.240003022448741500f,
//  -0.970772140728950350f,
//  0.237023605994367340f, -0.971503890986251780f, 0.234041958583543460f,
//  -0.972226497078936270f,
//  0.231058108280671280f, -0.972939952205560070f, 0.228072083170885790f,
//  -0.973644249650811870f,
//  0.225083911359792780f, -0.974339382785575860f, 0.222093620973203590f,
//  -0.975025345066994120f,
//  0.219101240156869770f, -0.975702130038528570f, 0.216106797076219600f,
//  -0.976369731330021140f,
//  0.213110319916091360f, -0.977028142657754390f, 0.210111836880469720f,
//  -0.977677357824509930f,
//  0.207111376192218560f, -0.978317370719627650f, 0.204108966092817010f,
//  -0.978948175319062200f,
//  0.201104634842091960f, -0.979569765685440520f, 0.198098410717953730f,
//  -0.980182135968117320f,
//  0.195090322016128330f, -0.980785280403230430f, 0.192080397049892380f,
//  -0.981379193313754560f,
//  0.189068664149806280f, -0.981963869109555240f, 0.186055151663446630f,
//  -0.982539302287441240f,
//  0.183039887955141060f, -0.983105487431216290f, 0.180022901405699510f,
//  -0.983662419211730250f,
//  0.177004220412148860f, -0.984210092386929030f, 0.173983873387463850f,
//  -0.984748501801904210f,
//  0.170961888760301360f, -0.985277642388941220f, 0.167938294974731230f,
//  -0.985797509167567370f,
//  0.164913120489970090f, -0.986308097244598670f, 0.161886393780111910f,
//  -0.986809401814185420f,
//  0.158858143333861390f, -0.987301418157858430f, 0.155828397654265320f,
//  -0.987784141644572180f,
//  0.152797185258443410f, -0.988257567730749460f, 0.149764534677321620f,
//  -0.988721691960323780f,
//  0.146730474455361750f, -0.989176509964781010f, 0.143695033150294580f,
//  -0.989622017463200780f,
//  0.140658239332849240f, -0.990058210262297120f, 0.137620121586486180f,
//  -0.990485084256456980f,
//  0.134580708507126220f, -0.990902635427780010f, 0.131540028702883280f,
//  -0.991310859846115440f,
//  0.128498110793793220f, -0.991709753669099530f, 0.125454983411546210f,
//  -0.992099313142191800f,
//  0.122410675199216280f, -0.992479534598709970f, 0.119365214810991350f,
//  -0.992850414459865100f,
//  0.116318630911904880f, -0.993211949234794500f, 0.113270952177564360f,
//  -0.993564135520595300f,
//  0.110222207293883180f, -0.993906970002356060f, 0.107172424956808870f,
//  -0.994240449453187900f,
//  0.104121633872054730f, -0.994564570734255420f, 0.101069862754827880f,
//  -0.994879330794805620f,
//  0.098017140329560770f, -0.995184726672196820f, 0.094963495329639061f,
//  -0.995480755491926940f,
//  0.091908956497132696f, -0.995767414467659820f, 0.088853552582524684f,
//  -0.996044700901251970f,
//  0.085797312344439880f, -0.996312612182778000f, 0.082740264549375803f,
//  -0.996571145790554840f,
//  0.079682437971430126f, -0.996820299291165670f, 0.076623861392031617f,
//  -0.997060070339482960f,
//  0.073564563599667454f, -0.997290456678690210f, 0.070504573389614009f,
//  -0.997511456140303450f,
//  0.067443919563664106f, -0.997723066644191640f, 0.064382630929857410f,
//  -0.997925286198596000f,
//  0.061320736302208648f, -0.998118112900149180f, 0.058258264500435732f,
//  -0.998301544933892890f,
//  0.055195244349690031f, -0.998475580573294770f, 0.052131704680283317f,
//  -0.998640218180265270f,
//  0.049067674327418126f, -0.998795456205172410f, 0.046003182130914644f,
//  -0.998941293186856870f,
//  0.042938256934940959f, -0.999077727752645360f, 0.039872927587739845f,
//  -0.999204758618363890f,
//  0.036807222941358991f, -0.999322384588349540f, 0.033741171851377642f,
//  -0.999430604555461730f,
//  0.030674803176636581f, -0.999529417501093140f, 0.027608145778965820f,
//  -0.999618822495178640f,
//  0.024541228522912264f, -0.999698818696204250f, 0.021474080275469605f,
//  -0.999769405351215280f,
//  0.018406729905804820f, -0.999830581795823400f, 0.015339206284988220f,
//  -0.999882347454212560f,
//  0.012271538285719944f, -0.999924701839144500f, 0.009203754782059960f,
//  -0.999957644551963900f,
//  0.006135884649154515f, -0.999981175282601110f, 0.003067956762966138f,
//  -0.999995293809576190f
//};

//static const float32_t Weights_2048[4096] = {
//  1.000000000000000000f, 0.000000000000000000f, 0.999999705862882230f,
//  -0.000766990318742704f,
//  0.999998823451701880f, -0.001533980186284766f, 0.999997352766978210f,
//  -0.002300969151425805f,
//  0.999995293809576190f, -0.003067956762965976f, 0.999992646580707190f,
//  -0.003834942569706228f,
//  0.999989411081928400f, -0.004601926120448571f, 0.999985587315143200f,
//  -0.005368906963996343f,
//  0.999981175282601110f, -0.006135884649154475f, 0.999976174986897610f,
//  -0.006902858724729756f,
//  0.999970586430974140f, -0.007669828739531097f, 0.999964409618118280f,
//  -0.008436794242369799f,
//  0.999957644551963900f, -0.009203754782059819f, 0.999950291236490480f,
//  -0.009970709907418031f,
//  0.999942349676023910f, -0.010737659167264491f, 0.999933819875236000f,
//  -0.011504602110422714f,
//  0.999924701839144500f, -0.012271538285719925f, 0.999914995573113470f,
//  -0.013038467241987334f,
//  0.999904701082852900f, -0.013805388528060391f, 0.999893818374418490f,
//  -0.014572301692779064f,
//  0.999882347454212560f, -0.015339206284988100f, 0.999870288328982950f,
//  -0.016106101853537287f,
//  0.999857641005823860f, -0.016872987947281710f, 0.999844405492175240f,
//  -0.017639864115082053f,
//  0.999830581795823400f, -0.018406729905804820f, 0.999816169924900410f,
//  -0.019173584868322623f,
//  0.999801169887884260f, -0.019940428551514441f, 0.999785581693599210f,
//  -0.020707260504265895f,
//  0.999769405351215280f, -0.021474080275469508f, 0.999752640870248840f,
//  -0.022240887414024961f,
//  0.999735288260561680f, -0.023007681468839369f, 0.999717347532362190f,
//  -0.023774461988827555f,
//  0.999698818696204250f, -0.024541228522912288f, 0.999679701762987930f,
//  -0.025307980620024571f,
//  0.999659996743959220f, -0.026074717829103901f, 0.999639703650710200f,
//  -0.026841439699098531f,
//  0.999618822495178640f, -0.027608145778965740f, 0.999597353289648380f,
//  -0.028374835617672099f,
//  0.999575296046749220f, -0.029141508764193722f, 0.999552650779456990f,
//  -0.029908164767516555f,
//  0.999529417501093140f, -0.030674803176636626f, 0.999505596225325310f,
//  -0.031441423540560301f,
//  0.999481186966166950f, -0.032208025408304586f, 0.999456189737977340f,
//  -0.032974608328897335f,
//  0.999430604555461730f, -0.033741171851377580f, 0.999404431433671300f,
//  -0.034507715524795750f,
//  0.999377670388002850f, -0.035274238898213947f, 0.999350321434199440f,
//  -0.036040741520706229f,
//  0.999322384588349540f, -0.036807222941358832f, 0.999293859866887790f,
//  -0.037573682709270494f,
//  0.999264747286594420f, -0.038340120373552694f, 0.999235046864595850f,
//  -0.039106535483329888f,
//  0.999204758618363890f, -0.039872927587739811f, 0.999173882565716380f,
//  -0.040639296235933736f,
//  0.999142418724816910f, -0.041405640977076739f, 0.999110367114174890f,
//  -0.042171961360347947f,
//  0.999077727752645360f, -0.042938256934940820f, 0.999044500659429290f,
//  -0.043704527250063421f,
//  0.999010685854073380f, -0.044470771854938668f, 0.998976283356469820f,
//  -0.045236990298804590f,
//  0.998941293186856870f, -0.046003182130914623f, 0.998905715365818290f,
//  -0.046769346900537863f,
//  0.998869549914283560f, -0.047535484156959303f, 0.998832796853527990f,
//  -0.048301593449480144f,
//  0.998795456205172410f, -0.049067674327418015f, 0.998757527991183340f,
//  -0.049833726340107277f,
//  0.998719012233872940f, -0.050599749036899282f, 0.998679908955899090f,
//  -0.051365741967162593f,
//  0.998640218180265270f, -0.052131704680283324f, 0.998599939930320370f,
//  -0.052897636725665324f,
//  0.998559074229759310f, -0.053663537652730520f, 0.998517621102622210f,
//  -0.054429407010919133f,
//  0.998475580573294770f, -0.055195244349689934f, 0.998432952666508440f,
//  -0.055961049218520569f,
//  0.998389737407340160f, -0.056726821166907748f, 0.998345934821212370f,
//  -0.057492559744367566f,
//  0.998301544933892890f, -0.058258264500435752f, 0.998256567771495180f,
//  -0.059023934984667931f,
//  0.998211003360478190f, -0.059789570746639868f, 0.998164851727646240f,
//  -0.060555171335947788f,
//  0.998118112900149180f, -0.061320736302208578f, 0.998070786905482340f,
//  -0.062086265195060088f,
//  0.998022873771486240f, -0.062851757564161406f, 0.997974373526346990f,
//  -0.063617212959193106f,
//  0.997925286198596000f, -0.064382630929857465f, 0.997875611817110150f,
//  -0.065148011025878833f,
//  0.997825350411111640f, -0.065913352797003805f, 0.997774502010167820f,
//  -0.066678655793001557f,
//  0.997723066644191640f, -0.067443919563664051f, 0.997671044343441000f,
//  -0.068209143658806329f,
//  0.997618435138519550f, -0.068974327628266746f, 0.997565239060375750f,
//  -0.069739471021907307f,
//  0.997511456140303450f, -0.070504573389613856f, 0.997457086409941910f,
//  -0.071269634281296401f,
//  0.997402129901275300f, -0.072034653246889332f, 0.997346586646633230f,
//  -0.072799629836351673f,
//  0.997290456678690210f, -0.073564563599667426f, 0.997233740030466280f,
//  -0.074329454086845756f,
//  0.997176436735326190f, -0.075094300847921305f, 0.997118546826979980f,
//  -0.075859103432954447f,
//  0.997060070339482960f, -0.076623861392031492f, 0.997001007307235290f,
//  -0.077388574275265049f,
//  0.996941357764982160f, -0.078153241632794232f, 0.996881121747813850f,
//  -0.078917863014784942f,
//  0.996820299291165670f, -0.079682437971430126f, 0.996758890430818000f,
//  -0.080446966052950014f,
//  0.996696895202896060f, -0.081211446809592441f, 0.996634313643869900f,
//  -0.081975879791633066f,
//  0.996571145790554840f, -0.082740264549375692f, 0.996507391680110820f,
//  -0.083504600633152432f,
//  0.996443051350042630f, -0.084268887593324071f, 0.996378124838200210f,
//  -0.085033124980280275f,
//  0.996312612182778000f, -0.085797312344439894f, 0.996246513422315520f,
//  -0.086561449236251170f,
//  0.996179828595696980f, -0.087325535206192059f, 0.996112557742151130f,
//  -0.088089569804770507f,
//  0.996044700901251970f, -0.088853552582524600f, 0.995976258112917790f,
//  -0.089617483090022959f,
//  0.995907229417411720f, -0.090381360877864983f, 0.995837614855341610f,
//  -0.091145185496681005f,
//  0.995767414467659820f, -0.091908956497132724f, 0.995696628295663520f,
//  -0.092672673429913310f,
//  0.995625256380994310f, -0.093436335845747787f, 0.995553298765638470f,
//  -0.094199943295393204f,
//  0.995480755491926940f, -0.094963495329638992f, 0.995407626602534900f,
//  -0.095726991499307162f,
//  0.995333912140482280f, -0.096490431355252593f, 0.995259612149133390f,
//  -0.097253814448363271f,
//  0.995184726672196930f, -0.098017140329560604f, 0.995109255753726110f,
//  -0.098780408549799623f,
//  0.995033199438118630f, -0.099543618660069319f, 0.994956557770116380f,
//  -0.100306770211392860f,
//  0.994879330794805620f, -0.101069862754827820f, 0.994801518557617110f,
//  -0.101832895841466530f,
//  0.994723121104325700f, -0.102595869022436280f, 0.994644138481050710f,
//  -0.103358781848899610f,
//  0.994564570734255420f, -0.104121633872054590f, 0.994484417910747600f,
//  -0.104884424643134970f,
//  0.994403680057679100f, -0.105647153713410620f, 0.994322357222545810f,
//  -0.106409820634187680f,
//  0.994240449453187900f, -0.107172424956808840f, 0.994157956797789730f,
//  -0.107934966232653650f,
//  0.994074879304879370f, -0.108697444013138720f, 0.993991217023329380f,
//  -0.109459857849717980f,
//  0.993906970002356060f, -0.110222207293883060f, 0.993822138291519660f,
//  -0.110984491897163390f,
//  0.993736721940724600f, -0.111746711211126590f, 0.993650721000219120f,
//  -0.112508864787378690f,
//  0.993564135520595300f, -0.113270952177564350f, 0.993476965552789190f,
//  -0.114032972933367200f,
//  0.993389211148080650f, -0.114794926606510080f, 0.993300872358093280f,
//  -0.115556812748755260f,
//  0.993211949234794500f, -0.116318630911904750f, 0.993122441830495580f,
//  -0.117080380647800590f,
//  0.993032350197851410f, -0.117842061508324980f, 0.992941674389860470f,
//  -0.118603673045400720f,
//  0.992850414459865100f, -0.119365214810991350f, 0.992758570461551140f,
//  -0.120126686357101500f,
//  0.992666142448948020f, -0.120888087235777080f, 0.992573130476428810f,
//  -0.121649416999105530f,
//  0.992479534598709970f, -0.122410675199216200f, 0.992385354870851670f,
//  -0.123171861388280480f,
//  0.992290591348257370f, -0.123932975118512160f, 0.992195244086673920f,
//  -0.124694015942167640f,
//  0.992099313142191800f, -0.125454983411546230f, 0.992002798571244520f,
//  -0.126215877078990350f,
//  0.991905700430609330f, -0.126976696496885870f, 0.991808018777406430f,
//  -0.127737441217662310f,
//  0.991709753669099530f, -0.128498110793793170f, 0.991610905163495370f,
//  -0.129258704777796140f,
//  0.991511473318743900f, -0.130019222722233350f, 0.991411458193338540f,
//  -0.130779664179711710f,
//  0.991310859846115440f, -0.131540028702883120f, 0.991209678336254060f,
//  -0.132300315844444650f,
//  0.991107913723276890f, -0.133060525157139060f, 0.991005566067049370f,
//  -0.133820656193754720f,
//  0.990902635427780010f, -0.134580708507126170f, 0.990799121866020370f,
//  -0.135340681650134210f,
//  0.990695025442664630f, -0.136100575175706200f, 0.990590346218950150f,
//  -0.136860388636816380f,
//  0.990485084256457090f, -0.137620121586486040f, 0.990379239617108160f,
//  -0.138379773577783890f,
//  0.990272812363169110f, -0.139139344163826200f, 0.990165802557248400f,
//  -0.139898832897777210f,
//  0.990058210262297120f, -0.140658239332849210f, 0.989950035541608990f,
//  -0.141417563022303020f,
//  0.989841278458820530f, -0.142176803519448030f, 0.989731939077910570f,
//  -0.142935960377642670f,
//  0.989622017463200890f, -0.143695033150294470f, 0.989511513679355190f,
//  -0.144454021390860470f,
//  0.989400427791380380f, -0.145212924652847460f, 0.989288759864625170f,
//  -0.145971742489812210f,
//  0.989176509964781010f, -0.146730474455361750f, 0.989063678157881540f,
//  -0.147489120103153570f,
//  0.988950264510302990f, -0.148247678986896030f, 0.988836269088763540f,
//  -0.149006150660348450f,
//  0.988721691960323780f, -0.149764534677321510f, 0.988606533192386450f,
//  -0.150522830591677400f,
//  0.988490792852696590f, -0.151281037957330220f, 0.988374471009341280f,
//  -0.152039156328246050f,
//  0.988257567730749460f, -0.152797185258443440f, 0.988140083085692570f,
//  -0.153555124301993450f,
//  0.988022017143283530f, -0.154312973013020100f, 0.987903369972977790f,
//  -0.155070730945700510f,
//  0.987784141644572180f, -0.155828397654265230f, 0.987664332228205710f,
//  -0.156585972692998430f,
//  0.987543941794359230f, -0.157343455616238250f, 0.987422970413855410f,
//  -0.158100845978376980f,
//  0.987301418157858430f, -0.158858143333861450f, 0.987179285097874340f,
//  -0.159615347237193060f,
//  0.987056571305750970f, -0.160372457242928280f, 0.986933276853677710f,
//  -0.161129472905678810f,
//  0.986809401814185530f, -0.161886393780111830f, 0.986684946260146690f,
//  -0.162643219420950310f,
//  0.986559910264775410f, -0.163399949382973230f, 0.986434293901627180f,
//  -0.164156583221015810f,
//  0.986308097244598670f, -0.164913120489969890f, 0.986181320367928270f,
//  -0.165669560744784120f,
//  0.986053963346195440f, -0.166425903540464100f, 0.985926026254321130f,
//  -0.167182148432072940f,
//  0.985797509167567480f, -0.167938294974731170f, 0.985668412161537550f,
//  -0.168694342723617330f,
//  0.985538735312176060f, -0.169450291233967960f, 0.985408478695768420f,
//  -0.170206140061078070f,
//  0.985277642388941220f, -0.170961888760301220f, 0.985146226468662230f,
//  -0.171717536887049970f,
//  0.985014231012239840f, -0.172473083996795950f, 0.984881656097323700f,
//  -0.173228529645070320f,
//  0.984748501801904210f, -0.173983873387463820f, 0.984614768204312600f,
//  -0.174739114779627200f,
//  0.984480455383220930f, -0.175494253377271430f, 0.984345563417641900f,
//  -0.176249288736167880f,
//  0.984210092386929030f, -0.177004220412148750f, 0.984074042370776450f,
//  -0.177759047961107170f,
//  0.983937413449218920f, -0.178513770938997510f, 0.983800205702631600f,
//  -0.179268388901835750f,
//  0.983662419211730250f, -0.180022901405699510f, 0.983524054057571260f,
//  -0.180777308006728590f,
//  0.983385110321551180f, -0.181531608261124970f, 0.983245588085407070f,
//  -0.182285801725153300f,
//  0.983105487431216290f, -0.183039887955140950f, 0.982964808441396440f,
//  -0.183793866507478450f,
//  0.982823551198705240f, -0.184547736938619620f, 0.982681715786240860f,
//  -0.185301498805081900f,
//  0.982539302287441240f, -0.186055151663446630f, 0.982396310786084690f,
//  -0.186808695070359270f,
//  0.982252741366289370f, -0.187562128582529600f, 0.982108594112513610f,
//  -0.188315451756732120f,
//  0.981963869109555240f, -0.189068664149806190f, 0.981818566442552500f,
//  -0.189821765318656410f,
//  0.981672686196983110f, -0.190574754820252740f, 0.981526228458664770f,
//  -0.191327632211630900f,
//  0.981379193313754560f, -0.192080397049892440f, 0.981231580848749730f,
//  -0.192833048892205230f,
//  0.981083391150486710f, -0.193585587295803610f, 0.980934624306141640f,
//  -0.194338011817988600f,
//  0.980785280403230430f, -0.195090322016128250f, 0.980635359529608120f,
//  -0.195842517447657850f,
//  0.980484861773469380f, -0.196594597670080220f, 0.980333787223347960f,
//  -0.197346562240965920f,
//  0.980182135968117430f, -0.198098410717953560f, 0.980029908096990090f,
//  -0.198850142658750090f,
//  0.979877103699517640f, -0.199601757621130970f, 0.979723722865591170f,
//  -0.200353255162940450f,
//  0.979569765685440520f, -0.201104634842091900f, 0.979415232249634780f,
//  -0.201855896216568050f,
//  0.979260122649082020f, -0.202607038844421130f, 0.979104436975029250f,
//  -0.203358062283773320f,
//  0.978948175319062200f, -0.204108966092816870f, 0.978791337773105670f,
//  -0.204859749829814420f,
//  0.978633924429423210f, -0.205610413053099240f, 0.978475935380616830f,
//  -0.206360955321075510f,
//  0.978317370719627650f, -0.207111376192218560f, 0.978158230539735050f,
//  -0.207861675225075070f,
//  0.977998514934557140f, -0.208611851978263490f, 0.977838223998050430f,
//  -0.209361906010474160f,
//  0.977677357824509930f, -0.210111836880469610f, 0.977515916508569280f,
//  -0.210861644147084860f,
//  0.977353900145199960f, -0.211611327369227550f, 0.977191308829712280f,
//  -0.212360886105878420f,
//  0.977028142657754390f, -0.213110319916091360f, 0.976864401725312640f,
//  -0.213859628358993750f,
//  0.976700086128711840f, -0.214608810993786760f, 0.976535195964614470f,
//  -0.215357867379745550f,
//  0.976369731330021140f, -0.216106797076219520f, 0.976203692322270560f,
//  -0.216855599642632620f,
//  0.976037079039039020f, -0.217604274638483640f, 0.975869891578341030f,
//  -0.218352821623346320f,
//  0.975702130038528570f, -0.219101240156869800f, 0.975533794518291360f,
//  -0.219849529798778700f,
//  0.975364885116656980f, -0.220597690108873510f, 0.975195401932990370f,
//  -0.221345720647030810f,
//  0.975025345066994120f, -0.222093620973203510f, 0.974854714618708430f,
//  -0.222841390647421120f,
//  0.974683510688510670f, -0.223589029229789990f, 0.974511733377115720f,
//  -0.224336536280493600f,
//  0.974339382785575860f, -0.225083911359792830f, 0.974166459015280320f,
//  -0.225831154028026170f,
//  0.973992962167955830f, -0.226578263845610000f, 0.973818892345666100f,
//  -0.227325240373038860f,
//  0.973644249650811980f, -0.228072083170885730f, 0.973469034186131070f,
//  -0.228818791799802220f,
//  0.973293246054698250f, -0.229565365820518870f, 0.973116885359925130f,
//  -0.230311804793845440f,
//  0.972939952205560180f, -0.231058108280671110f, 0.972762446695688570f,
//  -0.231804275841964780f,
//  0.972584368934732210f, -0.232550307038775240f, 0.972405719027449770f,
//  -0.233296201432231590f,
//  0.972226497078936270f, -0.234041958583543430f, 0.972046703194623500f,
//  -0.234787578054000970f,
//  0.971866337480279400f, -0.235533059404975490f, 0.971685400042008540f,
//  -0.236278402197919570f,
//  0.971503890986251780f, -0.237023605994367200f, 0.971321810419786160f,
//  -0.237768670355934190f,
//  0.971139158449725090f, -0.238513594844318420f, 0.970955935183517970f,
//  -0.239258379021299980f,
//  0.970772140728950350f, -0.240003022448741500f, 0.970587775194143630f,
//  -0.240747524688588430f,
//  0.970402838687555500f, -0.241491885302869330f, 0.970217331317979160f,
//  -0.242236103853696010f,
//  0.970031253194543970f, -0.242980179903263870f, 0.969844604426714830f,
//  -0.243724113013852160f,
//  0.969657385124292450f, -0.244467902747824150f, 0.969469595397413060f,
//  -0.245211548667627540f,
//  0.969281235356548530f, -0.245955050335794590f, 0.969092305112506210f,
//  -0.246698407314942410f,
//  0.968902804776428870f, -0.247441619167773270f, 0.968712734459794780f,
//  -0.248184685457074780f,
//  0.968522094274417380f, -0.248927605745720150f, 0.968330884332445190f,
//  -0.249670379596668570f,
//  0.968139104746362440f, -0.250413006572965220f, 0.967946755628987800f,
//  -0.251155486237741920f,
//  0.967753837093475510f, -0.251897818154216970f, 0.967560349253314360f,
//  -0.252640001885695520f,
//  0.967366292222328510f, -0.253382036995570160f, 0.967171666114676640f,
//  -0.254123923047320620f,
//  0.966976471044852070f, -0.254865659604514570f, 0.966780707127683270f,
//  -0.255607246230807380f,
//  0.966584374478333120f, -0.256348682489942910f, 0.966387473212298900f,
//  -0.257089967945753120f,
//  0.966190003445412500f, -0.257831102162158990f, 0.965991965293840570f,
//  -0.258572084703170340f,
//  0.965793358874083680f, -0.259312915132886230f, 0.965594184302976830f,
//  -0.260053593015495190f,
//  0.965394441697689400f, -0.260794117915275510f, 0.965194131175724720f,
//  -0.261534489396595520f,
//  0.964993252854920320f, -0.262274707023913590f, 0.964791806853447900f,
//  -0.263014770361779000f,
//  0.964589793289812760f, -0.263754678974831350f, 0.964387212282854290f,
//  -0.264494432427801630f,
//  0.964184063951745830f, -0.265234030285511790f, 0.963980348415994110f,
//  -0.265973472112875590f,
//  0.963776065795439840f, -0.266712757474898370f, 0.963571216210257320f,
//  -0.267451885936677620f,
//  0.963365799780954050f, -0.268190857063403180f, 0.963159816628371360f,
//  -0.268929670420357260f,
//  0.962953266873683880f, -0.269668325572915090f, 0.962746150638399410f,
//  -0.270406822086544820f,
//  0.962538468044359160f, -0.271145159526808010f, 0.962330219213737400f,
//  -0.271883337459359720f,
//  0.962121404269041580f, -0.272621355449948980f, 0.961912023333112210f,
//  -0.273359213064418680f,
//  0.961702076529122540f, -0.274096909868706380f, 0.961491563980579000f,
//  -0.274834445428843940f,
//  0.961280485811320640f, -0.275571819310958140f, 0.961068842145519350f,
//  -0.276309031081271080f,
//  0.960856633107679660f, -0.277046080306099900f, 0.960643858822638590f,
//  -0.277782966551857690f,
//  0.960430519415565790f, -0.278519689385053060f, 0.960216615011963430f,
//  -0.279256248372291180f,
//  0.960002145737665960f, -0.279992643080273220f, 0.959787111718839900f,
//  -0.280728873075797190f,
//  0.959571513081984520f, -0.281464937925757940f, 0.959355349953930790f,
//  -0.282200837197147560f,
//  0.959138622461841890f, -0.282936570457055390f, 0.958921330733213170f,
//  -0.283672137272668430f,
//  0.958703474895871600f, -0.284407537211271880f, 0.958485055077976100f,
//  -0.285142769840248670f,
//  0.958266071408017670f, -0.285877834727080620f, 0.958046524014818600f,
//  -0.286612731439347790f,
//  0.957826413027532910f, -0.287347459544729510f, 0.957605738575646350f,
//  -0.288082018611004130f,
//  0.957384500788975860f, -0.288816408206049480f, 0.957162699797670210f,
//  -0.289550627897843030f,
//  0.956940335732208820f, -0.290284677254462330f, 0.956717408723403050f,
//  -0.291018555844085090f,
//  0.956493918902395100f, -0.291752263234989260f, 0.956269866400658030f,
//  -0.292485798995553880f,
//  0.956045251349996410f, -0.293219162694258630f, 0.955820073882545420f,
//  -0.293952353899684660f,
//  0.955594334130771110f, -0.294685372180514330f, 0.955368032227470350f,
//  -0.295418217105532010f,
//  0.955141168305770780f, -0.296150888243623790f, 0.954913742499130520f,
//  -0.296883385163778270f,
//  0.954685754941338340f, -0.297615707435086200f, 0.954457205766513490f,
//  -0.298347854626741400f,
//  0.954228095109105670f, -0.299079826308040480f, 0.953998423103894490f,
//  -0.299811622048383350f,
//  0.953768189885990330f, -0.300543241417273450f, 0.953537395590833280f,
//  -0.301274683984317950f,
//  0.953306040354193860f, -0.302005949319228080f, 0.953074124312172200f,
//  -0.302737036991819140f,
//  0.952841647601198720f, -0.303467946572011320f, 0.952608610358033350f,
//  -0.304198677629829110f,
//  0.952375012719765880f, -0.304929229735402370f, 0.952140854823815830f,
//  -0.305659602458966120f,
//  0.951906136807932350f, -0.306389795370860920f, 0.951670858810193860f,
//  -0.307119808041533100f,
//  0.951435020969008340f, -0.307849640041534870f, 0.951198623423113230f,
//  -0.308579290941525090f,
//  0.950961666311575080f, -0.309308760312268730f, 0.950724149773789610f,
//  -0.310038047724637890f,
//  0.950486073949481700f, -0.310767152749611470f, 0.950247438978705230f,
//  -0.311496074958275910f,
//  0.950008245001843000f, -0.312224813921824880f, 0.949768492159606680f,
//  -0.312953369211560200f,
//  0.949528180593036670f, -0.313681740398891520f, 0.949287310443502120f,
//  -0.314409927055336660f,
//  0.949045881852700560f, -0.315137928752522440f, 0.948803894962658490f,
//  -0.315865745062183960f,
//  0.948561349915730270f, -0.316593375556165850f, 0.948318246854599090f,
//  -0.317320819806421740f,
//  0.948074585922276230f, -0.318048077385014950f, 0.947830367262101010f,
//  -0.318775147864118480f,
//  0.947585591017741090f, -0.319502030816015690f, 0.947340257333192050f,
//  -0.320228725813099860f,
//  0.947094366352777220f, -0.320955232427875210f, 0.946847918221148000f,
//  -0.321681550232956580f,
//  0.946600913083283530f, -0.322407678801069850f, 0.946353351084490590f,
//  -0.323133617705052330f,
//  0.946105232370403450f, -0.323859366517852850f, 0.945856557086983910f,
//  -0.324584924812532150f,
//  0.945607325380521280f, -0.325310292162262930f, 0.945357537397632290f,
//  -0.326035468140330240f,
//  0.945107193285260610f, -0.326760452320131730f, 0.944856293190677210f,
//  -0.327485244275178000f,
//  0.944604837261480260f, -0.328209843579092500f, 0.944352825645594750f,
//  -0.328934249805612200f,
//  0.944100258491272660f, -0.329658462528587490f, 0.943847135947092690f,
//  -0.330382481321982780f,
//  0.943593458161960390f, -0.331106305759876430f, 0.943339225285107720f,
//  -0.331829935416461110f,
//  0.943084437466093490f, -0.332553369866044220f, 0.942829094854802710f,
//  -0.333276608683047930f,
//  0.942573197601446870f, -0.333999651442009380f, 0.942316745856563780f,
//  -0.334722497717581220f,
//  0.942059739771017310f, -0.335445147084531600f, 0.941802179495997650f,
//  -0.336167599117744520f,
//  0.941544065183020810f, -0.336889853392220050f, 0.941285396983928660f,
//  -0.337611909483074620f,
//  0.941026175050889260f, -0.338333766965541130f, 0.940766399536396070f,
//  -0.339055425414969640f,
//  0.940506070593268300f, -0.339776884406826850f, 0.940245188374650880f,
//  -0.340498143516697160f,
//  0.939983753034014050f, -0.341219202320282360f, 0.939721764725153340f,
//  -0.341940060393402190f,
//  0.939459223602189920f, -0.342660717311994380f, 0.939196129819569900f,
//  -0.343381172652115040f,
//  0.938932483532064600f, -0.344101425989938810f, 0.938668284894770170f,
//  -0.344821476901759290f,
//  0.938403534063108060f, -0.345541324963989090f, 0.938138231192824360f,
//  -0.346260969753160010f,
//  0.937872376439989890f, -0.346980410845923680f, 0.937605969960999990f,
//  -0.347699647819051380f,
//  0.937339011912574960f, -0.348418680249434560f, 0.937071502451759190f,
//  -0.349137507714084970f,
//  0.936803441735921560f, -0.349856129790134920f, 0.936534829922755500f,
//  -0.350574546054837510f,
//  0.936265667170278260f, -0.351292756085567090f, 0.935995953636831410f,
//  -0.352010759459819080f,
//  0.935725689481080370f, -0.352728555755210730f, 0.935454874862014620f,
//  -0.353446144549480810f,
//  0.935183509938947610f, -0.354163525420490340f, 0.934911594871516090f,
//  -0.354880697946222790f,
//  0.934639129819680780f, -0.355597661704783850f, 0.934366114943725790f,
//  -0.356314416274402410f,
//  0.934092550404258980f, -0.357030961233429980f, 0.933818436362210960f,
//  -0.357747296160341900f,
//  0.933543772978836170f, -0.358463420633736540f, 0.933268560415712050f,
//  -0.359179334232336500f,
//  0.932992798834738960f, -0.359895036534988110f, 0.932716488398140250f,
//  -0.360610527120662270f,
//  0.932439629268462360f, -0.361325805568454280f, 0.932162221608574430f,
//  -0.362040871457584180f,
//  0.931884265581668150f, -0.362755724367397230f, 0.931605761351257830f,
//  -0.363470363877363760f,
//  0.931326709081180430f, -0.364184789567079890f, 0.931047108935595280f,
//  -0.364899001016267320f,
//  0.930766961078983710f, -0.365612997804773850f, 0.930486265676149780f,
//  -0.366326779512573590f,
//  0.930205022892219070f, -0.367040345719767180f, 0.929923232892639670f,
//  -0.367753696006581980f,
//  0.929640895843181330f, -0.368466829953372320f, 0.929358011909935500f,
//  -0.369179747140620020f,
//  0.929074581259315860f, -0.369892447148934100f, 0.928790604058057020f,
//  -0.370604929559051670f,
//  0.928506080473215590f, -0.371317193951837540f, 0.928221010672169440f,
//  -0.372029239908285010f,
//  0.927935394822617890f, -0.372741067009515760f, 0.927649233092581180f,
//  -0.373452674836780300f,
//  0.927362525650401110f, -0.374164062971457930f, 0.927075272664740100f,
//  -0.374875230995057540f,
//  0.926787474304581750f, -0.375586178489217220f, 0.926499130739230510f,
//  -0.376296905035704790f,
//  0.926210242138311380f, -0.377007410216418260f, 0.925920808671770070f,
//  -0.377717693613385640f,
//  0.925630830509872720f, -0.378427754808765560f, 0.925340307823206310f,
//  -0.379137593384847320f,
//  0.925049240782677580f, -0.379847208924051160f, 0.924757629559513910f,
//  -0.380556601008928520f,
//  0.924465474325262600f, -0.381265769222162380f, 0.924172775251791200f,
//  -0.381974713146567220f,
//  0.923879532511286740f, -0.382683432365089780f, 0.923585746276256670f,
//  -0.383391926460808660f,
//  0.923291416719527640f, -0.384100195016935040f, 0.922996544014246250f,
//  -0.384808237616812880f,
//  0.922701128333878630f, -0.385516053843918850f, 0.922405169852209880f,
//  -0.386223643281862980f,
//  0.922108668743345180f, -0.386931005514388580f, 0.921811625181708120f,
//  -0.387638140125372730f,
//  0.921514039342042010f, -0.388345046698826250f, 0.921215911399408730f,
//  -0.389051724818894380f,
//  0.920917241529189520f, -0.389758174069856410f, 0.920618029907083970f,
//  -0.390464394036126590f,
//  0.920318276709110590f, -0.391170384302253870f, 0.920017982111606570f,
//  -0.391876144452922350f,
//  0.919717146291227360f, -0.392581674072951470f, 0.919415769424947070f,
//  -0.393286972747296400f,
//  0.919113851690057770f, -0.393992040061048100f, 0.918811393264170050f,
//  -0.394696875599433560f,
//  0.918508394325212250f, -0.395401478947816350f, 0.918204855051430900f,
//  -0.396105849691696270f,
//  0.917900775621390500f, -0.396809987416710310f, 0.917596156213972950f,
//  -0.397513891708632330f,
//  0.917290997008377910f, -0.398217562153373560f, 0.916985298184123000f,
//  -0.398920998336982910f,
//  0.916679059921042700f, -0.399624199845646790f, 0.916372282399289140f,
//  -0.400327166265690090f,
//  0.916064965799331720f, -0.401029897183575620f, 0.915757110301956720f,
//  -0.401732392185905010f,
//  0.915448716088267830f, -0.402434650859418430f, 0.915139783339685260f,
//  -0.403136672790995300f,
//  0.914830312237946200f, -0.403838457567654070f, 0.914520302965104450f,
//  -0.404540004776553000f,
//  0.914209755703530690f, -0.405241314004989860f, 0.913898670635911680f,
//  -0.405942384840402510f,
//  0.913587047945250810f, -0.406643216870369030f, 0.913274887814867760f,
//  -0.407343809682607970f,
//  0.912962190428398210f, -0.408044162864978690f, 0.912648955969793900f,
//  -0.408744276005481360f,
//  0.912335184623322750f, -0.409444148692257590f, 0.912020876573568340f,
//  -0.410143780513590240f,
//  0.911706032005429880f, -0.410843171057903910f, 0.911390651104122430f,
//  -0.411542319913765220f,
//  0.911074734055176360f, -0.412241226669882890f, 0.910758281044437570f,
//  -0.412939890915108080f,
//  0.910441292258067250f, -0.413638312238434500f, 0.910123767882541680f,
//  -0.414336490228999100f,
//  0.909805708104652220f, -0.415034424476081630f, 0.909487113111505430f,
//  -0.415732114569105360f,
//  0.909167983090522380f, -0.416429560097637150f, 0.908848318229439120f,
//  -0.417126760651387870f,
//  0.908528118716306120f, -0.417823715820212270f, 0.908207384739488700f,
//  -0.418520425194109700f,
//  0.907886116487666260f, -0.419216888363223910f, 0.907564314149832630f,
//  -0.419913104917843620f,
//  0.907241977915295820f, -0.420609074448402510f, 0.906919107973678140f,
//  -0.421304796545479640f,
//  0.906595704514915330f, -0.422000270799799680f, 0.906271767729257660f,
//  -0.422695496802232950f,
//  0.905947297807268460f, -0.423390474143796050f, 0.905622294939825270f,
//  -0.424085202415651560f,
//  0.905296759318118820f, -0.424779681209108810f, 0.904970691133653250f,
//  -0.425473910115623800f,
//  0.904644090578246240f, -0.426167888726799620f, 0.904316957844028320f,
//  -0.426861616634386430f,
//  0.903989293123443340f, -0.427555093430282080f, 0.903661096609247980f,
//  -0.428248318706531960f,
//  0.903332368494511820f, -0.428941292055329490f, 0.903003108972617150f,
//  -0.429634013069016380f,
//  0.902673318237258830f, -0.430326481340082610f, 0.902342996482444200f,
//  -0.431018696461167030f,
//  0.902012143902493180f, -0.431710658025057260f, 0.901680760692037730f,
//  -0.432402365624690140f,
//  0.901348847046022030f, -0.433093818853151960f, 0.901016403159702330f,
//  -0.433785017303678520f,
//  0.900683429228646970f, -0.434475960569655650f, 0.900349925448735600f,
//  -0.435166648244619260f,
//  0.900015892016160280f, -0.435857079922255470f, 0.899681329127423930f,
//  -0.436547255196401200f,
//  0.899346236979341570f, -0.437237173661044090f, 0.899010615769039070f,
//  -0.437926834910322860f,
//  0.898674465693953820f, -0.438616238538527660f, 0.898337786951834310f,
//  -0.439305384140099950f,
//  0.898000579740739880f, -0.439994271309633260f, 0.897662844259040860f,
//  -0.440682899641872900f,
//  0.897324580705418320f, -0.441371268731716670f, 0.896985789278863970f,
//  -0.442059378174214700f,
//  0.896646470178680150f, -0.442747227564570020f, 0.896306623604479550f,
//  -0.443434816498138480f,
//  0.895966249756185220f, -0.444122144570429200f, 0.895625348834030110f,
//  -0.444809211377104880f,
//  0.895283921038557580f, -0.445496016513981740f, 0.894941966570620750f,
//  -0.446182559577030070f,
//  0.894599485631382700f, -0.446868840162374160f, 0.894256478422316040f,
//  -0.447554857866293010f,
//  0.893912945145203250f, -0.448240612285219890f, 0.893568886002135910f,
//  -0.448926103015743260f,
//  0.893224301195515320f, -0.449611329654606540f, 0.892879190928051680f,
//  -0.450296291798708610f,
//  0.892533555402764580f, -0.450980989045103860f, 0.892187394822982480f,
//  -0.451665420991002490f,
//  0.891840709392342720f, -0.452349587233770890f, 0.891493499314791380f,
//  -0.453033487370931580f,
//  0.891145764794583180f, -0.453717121000163870f, 0.890797506036281490f,
//  -0.454400487719303580f,
//  0.890448723244757880f, -0.455083587126343840f, 0.890099416625192320f,
//  -0.455766418819434640f,
//  0.889749586383072780f, -0.456448982396883920f, 0.889399232724195520f,
//  -0.457131277457156980f,
//  0.889048355854664570f, -0.457813303598877170f, 0.888696955980891600f,
//  -0.458495060420826270f,
//  0.888345033309596350f, -0.459176547521944090f, 0.887992588047805560f,
//  -0.459857764501329540f,
//  0.887639620402853930f, -0.460538710958240010f, 0.887286130582383150f,
//  -0.461219386492092380f,
//  0.886932118794342190f, -0.461899790702462730f, 0.886577585246987040f,
//  -0.462579923189086810f,
//  0.886222530148880640f, -0.463259783551860150f, 0.885866953708892790f,
//  -0.463939371390838520f,
//  0.885510856136199950f, -0.464618686306237820f, 0.885154237640285110f,
//  -0.465297727898434600f,
//  0.884797098430937790f, -0.465976495767966180f, 0.884439438718253810f,
//  -0.466654989515530920f,
//  0.884081258712634990f, -0.467333208741988420f, 0.883722558624789660f,
//  -0.468011153048359830f,
//  0.883363338665731580f, -0.468688822035827900f, 0.883003599046780830f,
//  -0.469366215305737520f,
//  0.882643339979562790f, -0.470043332459595620f, 0.882282561676008710f,
//  -0.470720173099071600f,
//  0.881921264348355050f, -0.471396736825997640f, 0.881559448209143780f,
//  -0.472073023242368660f,
//  0.881197113471222090f, -0.472749031950342790f, 0.880834260347742040f,
//  -0.473424762552241530f,
//  0.880470889052160750f, -0.474100214650549970f, 0.880106999798240360f,
//  -0.474775387847917120f,
//  0.879742592800047410f, -0.475450281747155870f, 0.879377668271953290f,
//  -0.476124895951243580f,
//  0.879012226428633530f, -0.476799230063322090f, 0.878646267485068130f,
//  -0.477473283686698060f,
//  0.878279791656541580f, -0.478147056424843010f, 0.877912799158641840f,
//  -0.478820547881393890f,
//  0.877545290207261350f, -0.479493757660153010f, 0.877177265018595940f,
//  -0.480166685365088390f,
//  0.876808723809145650f, -0.480839330600333960f, 0.876439666795713610f,
//  -0.481511692970189860f,
//  0.876070094195406600f, -0.482183772079122720f, 0.875700006225634600f,
//  -0.482855567531765670f,
//  0.875329403104110890f, -0.483527078932918740f, 0.874958285048851650f,
//  -0.484198305887549030f,
//  0.874586652278176110f, -0.484869248000791060f, 0.874214505010706300f,
//  -0.485539904877946960f,
//  0.873841843465366860f, -0.486210276124486420f, 0.873468667861384880f,
//  -0.486880361346047340f,
//  0.873094978418290090f, -0.487550160148436000f, 0.872720775355914300f,
//  -0.488219672137626790f,
//  0.872346058894391540f, -0.488888896919763170f, 0.871970829254157810f,
//  -0.489557834101157440f,
//  0.871595086655950980f, -0.490226483288291160f, 0.871218831320811020f,
//  -0.490894844087815090f,
//  0.870842063470078980f, -0.491562916106549900f, 0.870464783325397670f,
//  -0.492230698951486020f,
//  0.870086991108711460f, -0.492898192229784040f, 0.869708687042265670f,
//  -0.493565395548774770f,
//  0.869329871348606840f, -0.494232308515959670f, 0.868950544250582380f,
//  -0.494898930739011260f,
//  0.868570705971340900f, -0.495565261825772540f, 0.868190356734331310f,
//  -0.496231301384258250f,
//  0.867809496763303320f, -0.496897049022654470f, 0.867428126282306920f,
//  -0.497562504349319150f,
//  0.867046245515692650f, -0.498227666972781870f, 0.866663854688111130f,
//  -0.498892536501744590f,
//  0.866280954024512990f, -0.499557112545081840f, 0.865897543750148820f,
//  -0.500221394711840680f,
//  0.865513624090569090f, -0.500885382611240710f, 0.865129195271623800f,
//  -0.501549075852675390f,
//  0.864744257519462380f, -0.502212474045710790f, 0.864358811060534030f,
//  -0.502875576800086990f,
//  0.863972856121586810f, -0.503538383725717580f, 0.863586392929668100f,
//  -0.504200894432690340f,
//  0.863199421712124160f, -0.504863108531267590f, 0.862811942696600330f,
//  -0.505525025631885390f,
//  0.862423956111040610f, -0.506186645345155230f, 0.862035462183687210f,
//  -0.506847967281863210f,
//  0.861646461143081300f, -0.507508991052970870f, 0.861256953218062170f,
//  -0.508169716269614600f,
//  0.860866938637767310f, -0.508830142543106990f, 0.860476417631632070f,
//  -0.509490269484936360f,
//  0.860085390429390140f, -0.510150096706766810f, 0.859693857261072610f,
//  -0.510809623820439040f,
//  0.859301818357008470f, -0.511468850437970300f, 0.858909273947823900f,
//  -0.512127776171554690f,
//  0.858516224264442740f, -0.512786400633562960f, 0.858122669538086140f,
//  -0.513444723436543460f,
//  0.857728610000272120f, -0.514102744193221660f, 0.857334045882815590f,
//  -0.514760462516501200f,
//  0.856938977417828760f, -0.515417878019462930f, 0.856543404837719960f,
//  -0.516074990315366630f,
//  0.856147328375194470f, -0.516731799017649870f, 0.855750748263253920f,
//  -0.517388303739929060f,
//  0.855353664735196030f, -0.518044504095999340f, 0.854956078024614930f,
//  -0.518700399699834950f,
//  0.854557988365400530f, -0.519355990165589640f, 0.854159395991738850f,
//  -0.520011275107596040f,
//  0.853760301138111410f, -0.520666254140367160f, 0.853360704039295430f,
//  -0.521320926878595660f,
//  0.852960604930363630f, -0.521975292937154390f, 0.852560004046684080f,
//  -0.522629351931096610f,
//  0.852158901623919830f, -0.523283103475656430f, 0.851757297898029120f,
//  -0.523936547186248600f,
//  0.851355193105265200f, -0.524589682678468950f, 0.850952587482175730f,
//  -0.525242509568094710f,
//  0.850549481265603480f, -0.525895027471084630f, 0.850145874692685210f,
//  -0.526547236003579440f,
//  0.849741768000852550f, -0.527199134781901280f, 0.849337161427830780f,
//  -0.527850723422555230f,
//  0.848932055211639610f, -0.528502001542228480f, 0.848526449590592650f,
//  -0.529152968757790610f,
//  0.848120344803297230f, -0.529803624686294610f, 0.847713741088654380f,
//  -0.530453968944976320f,
//  0.847306638685858320f, -0.531104001151255000f, 0.846899037834397240f,
//  -0.531753720922733320f,
//  0.846490938774052130f, -0.532403127877197900f, 0.846082341744897050f,
//  -0.533052221632619450f,
//  0.845673246987299070f, -0.533701001807152960f, 0.845263654741918220f,
//  -0.534349468019137520f,
//  0.844853565249707120f, -0.534997619887097150f, 0.844442978751910660f,
//  -0.535645457029741090f,
//  0.844031895490066410f, -0.536292979065963180f, 0.843620315706004150f,
//  -0.536940185614842910f,
//  0.843208239641845440f, -0.537587076295645390f, 0.842795667540004120f,
//  -0.538233650727821700f,
//  0.842382599643185850f, -0.538879908531008420f, 0.841969036194387680f,
//  -0.539525849325028890f,
//  0.841554977436898440f, -0.540171472729892850f, 0.841140423614298080f,
//  -0.540816778365796670f,
//  0.840725374970458070f, -0.541461765853123440f, 0.840309831749540770f,
//  -0.542106434812443920f,
//  0.839893794195999520f, -0.542750784864515890f, 0.839477262554578550f,
//  -0.543394815630284800f,
//  0.839060237070312740f, -0.544038526730883820f, 0.838642717988527300f,
//  -0.544681917787634530f,
//  0.838224705554838080f, -0.545324988422046460f, 0.837806200015150940f,
//  -0.545967738255817570f,
//  0.837387201615661940f, -0.546610166910834860f, 0.836967710602857020f,
//  -0.547252274009174090f,
//  0.836547727223512010f, -0.547894059173100190f, 0.836127251724692270f,
//  -0.548535522025067390f,
//  0.835706284353752600f, -0.549176662187719660f, 0.835284825358337370f,
//  -0.549817479283890910f,
//  0.834862874986380010f, -0.550457972936604810f, 0.834440433486103190f,
//  -0.551098142769075430f,
//  0.834017501106018130f, -0.551737988404707340f, 0.833594078094925140f,
//  -0.552377509467096070f,
//  0.833170164701913190f, -0.553016705580027470f, 0.832745761176359460f,
//  -0.553655576367479310f,
//  0.832320867767929680f, -0.554294121453620000f, 0.831895484726577590f,
//  -0.554932340462810370f,
//  0.831469612302545240f, -0.555570233019602180f, 0.831043250746362320f,
//  -0.556207798748739930f,
//  0.830616400308846310f, -0.556845037275160100f, 0.830189061241102370f,
//  -0.557481948223991550f,
//  0.829761233794523050f, -0.558118531220556100f, 0.829332918220788250f,
//  -0.558754785890368310f,
//  0.828904114771864870f, -0.559390711859136140f, 0.828474823700007130f,
//  -0.560026308752760380f,
//  0.828045045257755800f, -0.560661576197336030f, 0.827614779697938400f,
//  -0.561296513819151470f,
//  0.827184027273669130f, -0.561931121244689470f, 0.826752788238348520f,
//  -0.562565398100626560f,
//  0.826321062845663530f, -0.563199344013834090f, 0.825888851349586780f,
//  -0.563832958611378170f,
//  0.825456154004377550f, -0.564466241520519500f, 0.825022971064580220f,
//  -0.565099192368713980f,
//  0.824589302785025290f, -0.565731810783613120f, 0.824155149420828570f,
//  -0.566364096393063840f,
//  0.823720511227391430f, -0.566996048825108680f, 0.823285388460400110f,
//  -0.567627667707986230f,
//  0.822849781375826430f, -0.568258952670131490f, 0.822413690229926390f,
//  -0.568889903340175860f,
//  0.821977115279241550f, -0.569520519346947140f, 0.821540056780597610f,
//  -0.570150800319470300f,
//  0.821102514991104650f, -0.570780745886967260f, 0.820664490168157460f,
//  -0.571410355678857230f,
//  0.820225982569434690f, -0.572039629324757050f, 0.819786992452898990f,
//  -0.572668566454481160f,
//  0.819347520076796900f, -0.573297166698042200f, 0.818907565699658950f,
//  -0.573925429685650750f,
//  0.818467129580298660f, -0.574553355047715760f, 0.818026211977813440f,
//  -0.575180942414845080f,
//  0.817584813151583710f, -0.575808191417845340f, 0.817142933361272970f,
//  -0.576435101687721830f,
//  0.816700572866827850f, -0.577061672855679440f, 0.816257731928477390f,
//  -0.577687904553122800f,
//  0.815814410806733780f, -0.578313796411655590f, 0.815370609762391290f,
//  -0.578939348063081780f,
//  0.814926329056526620f, -0.579564559139405630f, 0.814481568950498610f,
//  -0.580189429272831680f,
//  0.814036329705948410f, -0.580813958095764530f, 0.813590611584798510f,
//  -0.581438145240810170f,
//  0.813144414849253590f, -0.582061990340775440f, 0.812697739761799490f,
//  -0.582685493028668460f,
//  0.812250586585203880f, -0.583308652937698290f, 0.811802955582515470f,
//  -0.583931469701276180f,
//  0.811354847017063730f, -0.584553942953015330f, 0.810906261152459670f,
//  -0.585176072326730410f,
//  0.810457198252594770f, -0.585797857456438860f, 0.810007658581641140f,
//  -0.586419297976360500f,
//  0.809557642404051260f, -0.587040393520917970f, 0.809107149984558240f,
//  -0.587661143724736660f,
//  0.808656181588174980f, -0.588281548222645220f, 0.808204737480194720f,
//  -0.588901606649675720f,
//  0.807752817926190360f, -0.589521318641063940f, 0.807300423192014450f,
//  -0.590140683832248820f,
//  0.806847553543799330f, -0.590759701858874160f, 0.806394209247956240f,
//  -0.591378372356787580f,
//  0.805940390571176280f, -0.591996694962040990f, 0.805486097780429230f,
//  -0.592614669310891130f,
//  0.805031331142963660f, -0.593232295039799800f, 0.804576090926307110f,
//  -0.593849571785433630f,
//  0.804120377398265810f, -0.594466499184664430f, 0.803664190826924090f,
//  -0.595083076874569960f,
//  0.803207531480644940f, -0.595699304492433360f, 0.802750399628069160f,
//  -0.596315181675743710f,
//  0.802292795538115720f, -0.596930708062196500f, 0.801834719479981310f,
//  -0.597545883289693160f,
//  0.801376171723140240f, -0.598160706996342270f, 0.800917152537344300f,
//  -0.598775178820458720f,
//  0.800457662192622820f, -0.599389298400564540f, 0.799997700959281910f,
//  -0.600003065375388940f,
//  0.799537269107905010f, -0.600616479383868970f, 0.799076366909352350f,
//  -0.601229540065148500f,
//  0.798614994634760820f, -0.601842247058580030f, 0.798153152555543750f,
//  -0.602454600003723750f,
//  0.797690840943391160f, -0.603066598540348160f, 0.797228060070268810f,
//  -0.603678242308430370f,
//  0.796764810208418830f, -0.604289530948155960f, 0.796301091630359110f,
//  -0.604900464099919820f,
//  0.795836904608883570f, -0.605511041404325550f, 0.795372249417061310f,
//  -0.606121262502186120f,
//  0.794907126328237010f, -0.606731127034524480f, 0.794441535616030590f,
//  -0.607340634642572930f,
//  0.793975477554337170f, -0.607949784967773630f, 0.793508952417326660f,
//  -0.608558577651779450f,
//  0.793041960479443640f, -0.609167012336453210f, 0.792574502015407690f,
//  -0.609775088663868430f,
//  0.792106577300212390f, -0.610382806276309480f, 0.791638186609125880f,
//  -0.610990164816271660f,
//  0.791169330217690200f, -0.611597163926461910f, 0.790700008401721610f,
//  -0.612203803249797950f,
//  0.790230221437310030f, -0.612810082429409710f, 0.789759969600819070f,
//  -0.613416001108638590f,
//  0.789289253168885650f, -0.614021558931038380f, 0.788818072418420280f,
//  -0.614626755540375050f,
//  0.788346427626606340f, -0.615231590580626820f, 0.787874319070900220f,
//  -0.615836063695985090f,
//  0.787401747029031430f, -0.616440174530853650f, 0.786928711779001810f,
//  -0.617043922729849760f,
//  0.786455213599085770f, -0.617647307937803870f, 0.785981252767830150f,
//  -0.618250329799760250f,
//  0.785506829564053930f, -0.618852987960976320f, 0.785031944266848080f,
//  -0.619455282066924020f,
//  0.784556597155575240f, -0.620057211763289100f, 0.784080788509869950f,
//  -0.620658776695972140f,
//  0.783604518609638200f, -0.621259976511087550f, 0.783127787735057310f,
//  -0.621860810854965360f,
//  0.782650596166575730f, -0.622461279374149970f, 0.782172944184913010f,
//  -0.623061381715401260f,
//  0.781694832071059390f, -0.623661117525694530f, 0.781216260106276090f,
//  -0.624260486452220650f,
//  0.780737228572094490f, -0.624859488142386340f, 0.780257737750316590f,
//  -0.625458122243814360f,
//  0.779777787923014550f, -0.626056388404343520f, 0.779297379372530300f,
//  -0.626654286272029350f,
//  0.778816512381475980f, -0.627251815495144080f, 0.778335187232733210f,
//  -0.627848975722176460f,
//  0.777853404209453150f, -0.628445766601832710f, 0.777371163595056310f,
//  -0.629042187783036000f,
//  0.776888465673232440f, -0.629638238914926980f, 0.776405310727940390f,
//  -0.630233919646864370f,
//  0.775921699043407690f, -0.630829229628424470f, 0.775437630904130540f,
//  -0.631424168509401860f,
//  0.774953106594873930f, -0.632018735939809060f, 0.774468126400670860f,
//  -0.632612931569877410f,
//  0.773982690606822900f, -0.633206755050057190f, 0.773496799498899050f,
//  -0.633800206031017280f,
//  0.773010453362736990f, -0.634393284163645490f, 0.772523652484441330f,
//  -0.634985989099049460f,
//  0.772036397150384520f, -0.635578320488556110f, 0.771548687647206300f,
//  -0.636170277983712170f,
//  0.771060524261813820f, -0.636761861236284200f, 0.770571907281380810f,
//  -0.637353069898259130f,
//  0.770082836993347900f, -0.637943903621844060f, 0.769593313685422940f,
//  -0.638534362059466790f,
//  0.769103337645579700f, -0.639124444863775730f, 0.768612909162058380f,
//  -0.639714151687640450f,
//  0.768122028523365420f, -0.640303482184151670f, 0.767630696018273380f,
//  -0.640892436006621380f,
//  0.767138911935820400f, -0.641481012808583160f, 0.766646676565310380f,
//  -0.642069212243792540f,
//  0.766153990196312920f, -0.642657033966226860f, 0.765660853118662500f,
//  -0.643244477630085850f,
//  0.765167265622458960f, -0.643831542889791390f, 0.764673227998067140f,
//  -0.644418229399988380f,
//  0.764178740536116670f, -0.645004536815543930f, 0.763683803527501870f,
//  -0.645590464791548690f,
//  0.763188417263381270f, -0.646176012983316280f, 0.762692582035177980f,
//  -0.646761181046383920f,
//  0.762196298134578900f, -0.647345968636512060f, 0.761699565853535380f,
//  -0.647930375409685340f,
//  0.761202385484261780f, -0.648514401022112440f, 0.760704757319236920f,
//  -0.649098045130225950f,
//  0.760206681651202420f, -0.649681307390683190f, 0.759708158773163440f,
//  -0.650264187460365850f,
//  0.759209188978388070f, -0.650846684996380880f, 0.758709772560407390f,
//  -0.651428799656059820f,
//  0.758209909813015280f, -0.652010531096959500f, 0.757709601030268080f,
//  -0.652591878976862440f,
//  0.757208846506484570f, -0.653172842953776760f, 0.756707646536245670f,
//  -0.653753422685936060f,
//  0.756206001414394540f, -0.654333617831800440f, 0.755703911436035880f,
//  -0.654913428050056030f,
//  0.755201376896536550f, -0.655492852999615350f, 0.754698398091524500f,
//  -0.656071892339617600f,
//  0.754194975316889170f, -0.656650545729428940f, 0.753691108868781210f,
//  -0.657228812828642540f,
//  0.753186799043612520f, -0.657806693297078640f, 0.752682046138055340f,
//  -0.658384186794785050f,
//  0.752176850449042810f, -0.658961292982037320f, 0.751671212273768430f,
//  -0.659538011519338660f,
//  0.751165131909686480f, -0.660114342067420480f, 0.750658609654510700f,
//  -0.660690284287242300f,
//  0.750151645806215070f, -0.661265837839992270f, 0.749644240663033480f,
//  -0.661841002387086870f,
//  0.749136394523459370f, -0.662415777590171780f, 0.748628107686245440f,
//  -0.662990163111121470f,
//  0.748119380450403600f, -0.663564158612039770f, 0.747610213115205150f,
//  -0.664137763755260010f,
//  0.747100605980180130f, -0.664710978203344790f, 0.746590559345117310f,
//  -0.665283801619087180f,
//  0.746080073510063780f, -0.665856233665509720f, 0.745569148775325430f,
//  -0.666428274005865240f,
//  0.745057785441466060f, -0.666999922303637470f, 0.744545983809307370f,
//  -0.667571178222540310f,
//  0.744033744179929290f, -0.668142041426518450f, 0.743521066854669120f,
//  -0.668712511579747980f,
//  0.743007952135121720f, -0.669282588346636010f, 0.742494400323139180f,
//  -0.669852271391821020f,
//  0.741980411720831070f, -0.670421560380173090f, 0.741465986630563290f,
//  -0.670990454976794220f,
//  0.740951125354959110f, -0.671558954847018330f, 0.740435828196898020f,
//  -0.672127059656411730f,
//  0.739920095459516200f, -0.672694769070772860f, 0.739403927446205760f,
//  -0.673262082756132970f,
//  0.738887324460615110f, -0.673829000378756040f, 0.738370286806648620f,
//  -0.674395521605139050f,
//  0.737852814788465980f, -0.674961646102011930f, 0.737334908710482910f,
//  -0.675527373536338520f,
//  0.736816568877369900f, -0.676092703575315920f, 0.736297795594053170f,
//  -0.676657635886374950f,
//  0.735778589165713590f, -0.677222170137180330f, 0.735258949897786840f,
//  -0.677786305995631500f,
//  0.734738878095963500f, -0.678350043129861470f, 0.734218374066188280f,
//  -0.678913381208238410f,
//  0.733697438114660370f, -0.679476319899364970f, 0.733176070547832740f,
//  -0.680038858872078930f,
//  0.732654271672412820f, -0.680600997795453020f, 0.732132041795361290f,
//  -0.681162736338795430f,
//  0.731609381223892630f, -0.681724074171649710f, 0.731086290265474340f,
//  -0.682285010963795570f,
//  0.730562769227827590f, -0.682845546385248080f, 0.730038818418926260f,
//  -0.683405680106258680f,
//  0.729514438146997010f, -0.683965411797315400f, 0.728989628720519420f,
//  -0.684524741129142300f,
//  0.728464390448225200f, -0.685083667772700360f, 0.727938723639098620f,
//  -0.685642191399187470f,
//  0.727412628602375770f, -0.686200311680038590f, 0.726886105647544970f,
//  -0.686758028286925890f,
//  0.726359155084346010f, -0.687315340891759050f, 0.725831777222770370f,
//  -0.687872249166685550f,
//  0.725303972373060770f, -0.688428752784090440f, 0.724775740845711280f,
//  -0.688984851416597040f,
//  0.724247082951467000f, -0.689540544737066830f, 0.723717999001323500f,
//  -0.690095832418599950f,
//  0.723188489306527460f, -0.690650714134534600f, 0.722658554178575610f,
//  -0.691205189558448450f,
//  0.722128193929215350f, -0.691759258364157750f, 0.721597408870443770f,
//  -0.692312920225718220f,
//  0.721066199314508110f, -0.692866174817424630f, 0.720534565573905270f,
//  -0.693419021813811760f,
//  0.720002507961381650f, -0.693971460889654000f, 0.719470026789932990f,
//  -0.694523491719965520f,
//  0.718937122372804490f, -0.695075113980000880f, 0.718403795023489830f,
//  -0.695626327345254870f,
//  0.717870045055731710f, -0.696177131491462990f, 0.717335872783521730f,
//  -0.696727526094601200f,
//  0.716801278521099540f, -0.697277510830886520f, 0.716266262582953120f,
//  -0.697827085376777290f,
//  0.715730825283818590f, -0.698376249408972920f, 0.715194966938680120f,
//  -0.698925002604414150f,
//  0.714658687862769090f, -0.699473344640283770f, 0.714121988371564820f,
//  -0.700021275194006250f,
//  0.713584868780793640f, -0.700568793943248340f, 0.713047329406429340f,
//  -0.701115900565918660f,
//  0.712509370564692320f, -0.701662594740168450f, 0.711970992572050100f,
//  -0.702208876144391870f,
//  0.711432195745216430f, -0.702754744457225300f, 0.710892980401151680f,
//  -0.703300199357548730f,
//  0.710353346857062420f, -0.703845240524484940f, 0.709813295430400840f,
//  -0.704389867637400410f,
//  0.709272826438865690f, -0.704934080375904880f, 0.708731940200400650f,
//  -0.705477878419852100f,
//  0.708190637033195400f, -0.706021261449339740f, 0.707648917255684350f,
//  -0.706564229144709510f,
//  0.707106781186547570f, -0.707106781186547460f, 0.706564229144709620f,
//  -0.707648917255684350f,
//  0.706021261449339740f, -0.708190637033195290f, 0.705477878419852210f,
//  -0.708731940200400650f,
//  0.704934080375904990f, -0.709272826438865580f, 0.704389867637400410f,
//  -0.709813295430400840f,
//  0.703845240524484940f, -0.710353346857062310f, 0.703300199357548730f,
//  -0.710892980401151680f,
//  0.702754744457225300f, -0.711432195745216430f, 0.702208876144391870f,
//  -0.711970992572049990f,
//  0.701662594740168570f, -0.712509370564692320f, 0.701115900565918660f,
//  -0.713047329406429230f,
//  0.700568793943248450f, -0.713584868780793520f, 0.700021275194006360f,
//  -0.714121988371564710f,
//  0.699473344640283770f, -0.714658687862768980f, 0.698925002604414150f,
//  -0.715194966938680010f,
//  0.698376249408972920f, -0.715730825283818590f, 0.697827085376777290f,
//  -0.716266262582953120f,
//  0.697277510830886630f, -0.716801278521099540f, 0.696727526094601200f,
//  -0.717335872783521730f,
//  0.696177131491462990f, -0.717870045055731710f, 0.695626327345254870f,
//  -0.718403795023489720f,
//  0.695075113980000880f, -0.718937122372804380f, 0.694523491719965520f,
//  -0.719470026789932990f,
//  0.693971460889654000f, -0.720002507961381650f, 0.693419021813811880f,
//  -0.720534565573905270f,
//  0.692866174817424740f, -0.721066199314508110f, 0.692312920225718220f,
//  -0.721597408870443660f,
//  0.691759258364157750f, -0.722128193929215350f, 0.691205189558448450f,
//  -0.722658554178575610f,
//  0.690650714134534720f, -0.723188489306527350f, 0.690095832418599950f,
//  -0.723717999001323390f,
//  0.689540544737066940f, -0.724247082951466890f, 0.688984851416597150f,
//  -0.724775740845711280f,
//  0.688428752784090550f, -0.725303972373060660f, 0.687872249166685550f,
//  -0.725831777222770370f,
